<?xml version="1.0" encoding="UTF-8"?>
<PMML xmlns="http://www.dmg.org/PMML-4_4" version="4.4.1">
    <Header copyright="Copyright (c) 2021 Software AG" description="Default description">
        <Application name="Nyoka" version="5.4.0"/>
        <Timestamp>2022-10-21 20:23:59.160534</Timestamp>
    </Header>
    <DataDictionary numberOfFields="15">
        <DataField name="dateTime" optype="continuous" dataType="double"/>
        <DataField name="heartRate" optype="continuous" dataType="double"/>
        <DataField name="ppgGreen" optype="continuous" dataType="double"/>
        <DataField name="ppgRed" optype="continuous" dataType="double"/>
        <DataField name="ppgIR" optype="continuous" dataType="double"/>
        <DataField name="saturation" optype="continuous" dataType="double"/>
        <DataField name="pressure" optype="continuous" dataType="double"/>
        <DataField name="accelerometerX" optype="continuous" dataType="double"/>
        <DataField name="accelerometerY" optype="continuous" dataType="double"/>
        <DataField name="accelerometerZ" optype="continuous" dataType="double"/>
        <DataField name="gyroscopeX" optype="continuous" dataType="double"/>
        <DataField name="gyroscopeY" optype="continuous" dataType="double"/>
        <DataField name="gyroscopeZ" optype="continuous" dataType="double"/>
        <DataField name="lux" optype="continuous" dataType="double"/>
        <DataField name="sleepiness" optype="categorical" dataType="integer">
            <Value value="0"/>
            <Value value="1"/>
        </DataField>
    </DataDictionary>
    <SupportVectorMachineModel modelName="SVC" functionName="classification" threshold="0" classificationMethod="OneAgainstOne">
        <MiningSchema>
            <MiningField name="dateTime" usageType="active" optype="continuous"/>
            <MiningField name="heartRate" usageType="active" optype="continuous"/>
            <MiningField name="ppgGreen" usageType="active" optype="continuous"/>
            <MiningField name="ppgRed" usageType="active" optype="continuous"/>
            <MiningField name="ppgIR" usageType="active" optype="continuous"/>
            <MiningField name="saturation" usageType="active" optype="continuous"/>
            <MiningField name="pressure" usageType="active" optype="continuous"/>
            <MiningField name="accelerometerX" usageType="active" optype="continuous"/>
            <MiningField name="accelerometerY" usageType="active" optype="continuous"/>
            <MiningField name="accelerometerZ" usageType="active" optype="continuous"/>
            <MiningField name="gyroscopeX" usageType="active" optype="continuous"/>
            <MiningField name="gyroscopeY" usageType="active" optype="continuous"/>
            <MiningField name="gyroscopeZ" usageType="active" optype="continuous"/>
            <MiningField name="lux" usageType="active" optype="continuous"/>
            <MiningField name="sleepiness" usageType="target" optype="categorical"/>
        </MiningSchema>
        <Output>
            <OutputField name="probability_0" optype="continuous" dataType="double" feature="probability" value="0"/>
            <OutputField name="probability_1" optype="continuous" dataType="double" feature="probability" value="1"/>
            <OutputField name="predicted_sleepiness" optype="categorical" dataType="integer" feature="predictedValue"/>
        </Output>
        <RadialBasisKernelType description="Radial Basis Kernel Type" gamma="0.0000000000000154"/>
        <VectorDictionary>
            <VectorFields>
                <FieldRef field="dateTime"/>
                <FieldRef field="heartRate"/>
                <FieldRef field="ppgGreen"/>
                <FieldRef field="ppgRed"/>
                <FieldRef field="ppgIR"/>
                <FieldRef field="saturation"/>
                <FieldRef field="pressure"/>
                <FieldRef field="accelerometerX"/>
                <FieldRef field="accelerometerY"/>
                <FieldRef field="accelerometerZ"/>
                <FieldRef field="gyroscopeX"/>
                <FieldRef field="gyroscopeY"/>
                <FieldRef field="gyroscopeZ"/>
                <FieldRef field="lux"/>
            </VectorFields>
            <VectorInstance id="4">
                <REAL-SparseArray n="14" defaultValue="0">
                    <Indices>1 2 3 4 5 6 7 8 9 10 11 12 13</Indices>
                    <REAL-Entries>114.0 2224299.0 6743341.0 6674963.0 95.05156779198077 1023.2449 -2.767697 7.7572136 -4.8698063 -0.043982297 -0.029321533 0.29443705 12.0</REAL-Entries>
                </REAL-SparseArray>
            </VectorInstance>
            <VectorInstance id="8">
                <REAL-SparseArray n="14" defaultValue="0">
                    <Indices>1 2 3 4 5 6 7 8 9 10 11 12 13</Indices>
                    <REAL-Entries>57.0 1522470.0 6081883.0 6037626.0 96.0 1023.09937 -1.9512744 9.414001 2.2290018 0.0036651916 0.0 0.002443461 0.0</REAL-Entries>
                </REAL-SparseArray>
            </VectorInstance>
            <VectorInstance id="9">
                <REAL-SparseArray n="14" defaultValue="0">
                    <Indices>1 2 3 4 5 6 7 8 9 10 11 12 13</Indices>
                    <REAL-Entries>65.0 1545963.0 6194361.0 6103734.0 96.0 1022.76807 -2.7844565 9.112331 2.8203697 0.0 0.002443461 -0.004886922 0.0</REAL-Entries>
                </REAL-SparseArray>
            </VectorInstance>
            <VectorInstance id="15">
                <REAL-SparseArray n="14" defaultValue="0">
                    <Indices>1 2 3 4 5 6 7 8 9 10 11 12 13</Indices>
                    <REAL-Entries>70.0 1839064.0 6076753.0 6258391.0 95.0 1022.70654 -0.37588966 9.097966 4.0294414 0.0012217305 0.004886922 -0.013439035 0.0</REAL-Entries>
                </REAL-SparseArray>
            </VectorInstance>
            <VectorInstance id="28">
                <REAL-SparseArray n="14" defaultValue="0">
                    <Indices>1 2 3 4 5 6 7 8 9 10 11 12 13</Indices>
                    <REAL-Entries>58.0 2189109.0 6259379.0 6491099.0 93.0 1022.4153 -3.2848446 6.253655 6.895301 0.007330383 -0.0012217305 0.004886922 0.0</REAL-Entries>
                </REAL-SparseArray>
            </VectorInstance>
            <VectorInstance id="30">
                <REAL-SparseArray n="14" defaultValue="0">
                    <Indices>1 2 3 4 5 6 7 8 9 10 11 12 13</Indices>
                    <REAL-Entries>80.0 1492371.0 5848538.0 6416562.0 97.0 1021.6216 -3.3662477 2.3319526 -8.820239 0.0036651916 0.004886922 -0.062308256 12.0</REAL-Entries>
                </REAL-SparseArray>
            </VectorInstance>
            <VectorInstance id="32">
                <REAL-SparseArray n="14" defaultValue="0">
                    <Indices>1 2 3 4 5 6 7 8 9 10 11 12 13</Indices>
                    <REAL-Entries>74.0 1934682.0 6257180.0 6548655.0 93.0 1021.7737 0.7278373 6.2823853 7.383718 0.02321288 -0.24190263 0.24556783 0.0</REAL-Entries>
                </REAL-SparseArray>
            </VectorInstance>
            <VectorInstance id="34">
                <REAL-SparseArray n="14" defaultValue="0">
                    <Indices>1 2 3 4 5 6 7 8 9 10 11 12 13</Indices>
                    <REAL-Entries>68.0 1989730.0 6157593.0 6394599.0 87.0 1021.66284 4.268862 7.9128366 -3.5290532 -0.03176499 0.16982053 -0.047647487 0.0</REAL-Entries>
                </REAL-SparseArray>
            </VectorInstance>
            <VectorInstance id="38">
                <REAL-SparseArray n="14" defaultValue="0">
                    <Indices>1 2 3 4 5 6 7 8 9 10 11 12 13</Indices>
                    <REAL-Entries>55.0 2278430.0 6272325.0 6545475.0 91.0 1022.4004 -3.2225955 6.2752028 7.017405 -0.007330383 -0.002443461 0.0 0.0</REAL-Entries>
                </REAL-SparseArray>
            </VectorInstance>
            <VectorInstance id="40">
                <REAL-SparseArray n="14" defaultValue="0">
                    <Indices>1 2 3 4 5 6 7 8 9 10 11 12 13</Indices>
                    <REAL-Entries>67.0 1934491.0 6145141.0 6329924.0 95.0 1022.71387 -0.35434186 9.076419 4.0581717 0.0012217305 0.0012217305 -0.004886922 0.0</REAL-Entries>
                </REAL-SparseArray>
            </VectorInstance>
            <VectorInstance id="41">
                <REAL-SparseArray n="14" defaultValue="0">
                    <Indices>1 2 3 4 5 6 7 8 9 10 11 12 13</Indices>
                    <REAL-Entries>65.0 1600734.0 6176975.0 6094060.0 96.0 1022.91284 -2.7365725 9.076419 2.7964275 0.0012217305 0.002443461 0.0 0.0</REAL-Entries>
                </REAL-SparseArray>
            </VectorInstance>
            <VectorInstance id="44">
                <REAL-SparseArray n="14" defaultValue="0">
                    <Indices>1 2 3 4 5 6 7 8 9 10 11 12 13</Indices>
                    <REAL-Entries>65.0 1591536.0 6184176.0 6124640.0 96.0 1022.9634 -2.6647465 9.064447 2.7964275 -0.0036651916 -0.0036651916 0.0012217305 0.0</REAL-Entries>
                </REAL-SparseArray>
            </VectorInstance>
            <VectorInstance id="47">
                <REAL-SparseArray n="14" defaultValue="0">
                    <Indices>1 2 3 4 5 6 7 8 9 10 11 12 13</Indices>
                    <REAL-Entries>72.0 2091741.0 6383917.0 6523497.0 87.0 1021.7793 2.825158 5.722142 6.7827735 -0.16493362 -0.23701571 -0.19547687 0.0</REAL-Entries>
                </REAL-SparseArray>
            </VectorInstance>
            <VectorInstance id="61">
                <REAL-SparseArray n="14" defaultValue="0">
                    <Indices>1 2 3 4 5 6 7 8 9 10 11 12 13</Indices>
                    <REAL-Entries>56.0 2313068.0 6277180.0 6560677.0 92.0 1022.3513 -3.2680852 6.217742 7.0581064 0.002443461 0.0 0.0012217305 0.0</REAL-Entries>
                </REAL-SparseArray>
            </VectorInstance>
            <VectorInstance id="64">
                <REAL-SparseArray n="14" defaultValue="0">
                    <Indices>1 2 3 4 5 6 7 8 9 10 11 12 13</Indices>
                    <REAL-Entries>66.0 1661757.0 6170078.0 6120746.0 96.0 1023.03076 -2.767697 9.064447 2.8107927 0.0012217305 -0.0012217305 0.009773844 0.0</REAL-Entries>
                </REAL-SparseArray>
            </VectorInstance>
            <VectorInstance id="65">
                <REAL-SparseArray n="14" defaultValue="0">
                    <Indices>1 2 3 4 5 6 7 8 9 10 11 12 13</Indices>
                    <REAL-Entries>103.0 2058927.0 5954251.0 6472602.0 96.0 1021.6196 -9.425972 -0.92655605 -1.0366893 -0.013439035 -0.07574729 0.030543262 0.0</REAL-Entries>
                </REAL-SparseArray>
            </VectorInstance>
            <VectorInstance id="71">
                <REAL-SparseArray n="14" defaultValue="0">
                    <Indices>1 2 3 4 5 6 7 8 9 10 11 12 13</Indices>
                    <REAL-Entries>67.0 1494346.0 6220484.0 6127006.0 96.0 1022.77856 -2.777274 9.064447 2.846706 -0.0012217305 -0.0036651916 0.0061086523 0.0</REAL-Entries>
                </REAL-SparseArray>
            </VectorInstance>
            <VectorInstance id="72">
                <REAL-SparseArray n="14" defaultValue="0">
                    <Indices>1 2 3 4 5 6 7 8 9 10 11 12 13</Indices>
                    <REAL-Entries>78.0 1900256.0 6289464.0 6616865.0 96.0 1021.6792 8.049306 0.33518824 5.2887917 0.021991149 0.065973446 0.012217305 8.0</REAL-Entries>
                </REAL-SparseArray>
            </VectorInstance>
            <VectorInstance id="74">
                <REAL-SparseArray n="14" defaultValue="0">
                    <Indices>1 2 3 4 5 6 7 8 9 10 11 12 13</Indices>
                    <REAL-Entries>64.0 1964552.0 6175515.0 6417482.0 87.0 1021.7964 10.228029 -3.7541082 2.5594015 -0.71837753 0.06352998 2.3151793 0.0</REAL-Entries>
                </REAL-SparseArray>
            </VectorInstance>
            <VectorInstance id="89">
                <REAL-SparseArray n="14" defaultValue="0">
                    <Indices>1 2 3 4 5 6 7 8 9 10 11 12 13</Indices>
                    <REAL-Entries>71.0 1965568.0 6277261.0 6554369.0 93.0 1021.7803 0.12928689 6.2464724 7.6135616 -0.07086037 0.05009095 0.014660766 0.0</REAL-Entries>
                </REAL-SparseArray>
            </VectorInstance>
            <VectorInstance id="90">
                <REAL-SparseArray n="14" defaultValue="0">
                    <Indices>1 2 3 4 5 6 7 8 9 10 11 12 13</Indices>
                    <REAL-Entries>63.0 1398949.0 6177383.0 6043722.0 96.0 1023.125 -2.1092918 9.392453 2.3247697 -0.004886922 -0.002443461 0.002443461 0.0</REAL-Entries>
                </REAL-SparseArray>
            </VectorInstance>
            <VectorInstance id="97">
                <REAL-SparseArray n="14" defaultValue="0">
                    <Indices>1 2 3 4 5 6 7 8 9 10 11 12 13</Indices>
                    <REAL-Entries>65.0 1552677.0 6194812.0 6123624.0 96.0 1022.91016 -2.7126305 9.100361 2.8993783 -0.007330383 -0.0061086523 0.0036651916 0.0</REAL-Entries>
                </REAL-SparseArray>
            </VectorInstance>
            <VectorInstance id="103">
                <REAL-SparseArray n="14" defaultValue="0">
                    <Indices>1 2 3 4 5 6 7 8 9 10 11 12 13</Indices>
                    <REAL-Entries>102.0 1976557.0 6409356.0 6712293.0 97.0 1021.5737 -7.608773 4.8865657 0.39983168 0.14538592 -0.44959682 0.4092797 48.0</REAL-Entries>
                </REAL-SparseArray>
            </VectorInstance>
            <VectorInstance id="104">
                <REAL-SparseArray n="14" defaultValue="0">
                    <Indices>1 2 3 4 5 6 7 8 9 10 11 12 13</Indices>
                    <REAL-Entries>67.0 1952065.0 6145200.0 6398780.0 87.0 1021.81177 3.7684734 8.360553 3.940856 0.0036651916 -0.007330383 0.062308256 0.0</REAL-Entries>
                </REAL-SparseArray>
            </VectorInstance>
            <VectorInstance id="105">
                <REAL-SparseArray n="14" defaultValue="0">
                    <Indices>1 2 3 4 5 6 7 8 9 10 11 12 13</Indices>
                    <REAL-Entries>56.0 2118437.0 6255874.0 6468106.0 93.0 1022.4524 -3.3207579 6.196194 6.9479733 0.0012217305 0.002443461 0.0 0.0</REAL-Entries>
                </REAL-SparseArray>
            </VectorInstance>
            <VectorInstance id="112">
                <REAL-SparseArray n="14" defaultValue="0">
                    <Indices>1 2 3 4 5 6 7 8 9 10 11 12 13</Indices>
                    <REAL-Entries>68.0 1559438.0 6248436.0 6216909.0 96.0 1022.7322 -1.42455 9.497798 4.474763 0.02565634 -0.35918877 0.675617 0.0</REAL-Entries>
                </REAL-SparseArray>
            </VectorInstance>
            <VectorInstance id="114">
                <REAL-SparseArray n="14" defaultValue="0">
                    <Indices>1 2 3 4 5 6 7 8 9 10 11 12 13</Indices>
                    <REAL-Entries>76.0 2083170.0 6359840.0 6457221.0 87.0 1021.78174 -3.217807 6.493075 7.5201874 0.29810223 0.4886922 0.13439035 0.0</REAL-Entries>
                </REAL-SparseArray>
            </VectorInstance>
            <VectorInstance id="115">
                <REAL-SparseArray n="14" defaultValue="0">
                    <Indices>1 2 3 4 5 6 7 8 9 10 11 12 13</Indices>
                    <REAL-Entries>70.0 1838523.0 5928385.0 6284734.0 87.0 1021.5615 8.607155 1.7645266 -4.5418005 -0.004886922 -0.0012217305 -0.014660766 0.0</REAL-Entries>
                </REAL-SparseArray>
            </VectorInstance>
            <VectorInstance id="121">
                <REAL-SparseArray n="14" defaultValue="0">
                    <Indices>1 2 3 4 5 6 7 8 9 10 11 12 13</Indices>
                    <REAL-Entries>66.0 1982394.0 6308787.0 6607452.0 93.0 1021.8042 3.799598 6.5864487 6.706159 0.105068825 0.15760323 -0.056199603 0.0</REAL-Entries>
                </REAL-SparseArray>
            </VectorInstance>
            <VectorInstance id="123">
                <REAL-SparseArray n="14" defaultValue="0">
                    <Indices>1 2 3 4 5 6 7 8 9 10 11 12 13</Indices>
                    <REAL-Entries>61.0 1479216.0 6079487.0 6002948.0 96.0 1023.0637 -2.030283 9.406818 2.231396 -0.004886922 -0.0012217305 -0.002443461 0.0</REAL-Entries>
                </REAL-SparseArray>
            </VectorInstance>
            <VectorInstance id="128">
                <REAL-SparseArray n="14" defaultValue="0">
                    <Indices>1 2 3 4 5 6 7 8 9 10 11 12 13</Indices>
                    <REAL-Entries>60.0 1483261.0 6084738.0 6014634.0 96.0 1023.07324 -2.0614076 9.406818 2.2505496 -0.009773844 -0.002443461 -0.007330383 0.0</REAL-Entries>
                </REAL-SparseArray>
            </VectorInstance>
            <VectorInstance id="131">
                <REAL-SparseArray n="14" defaultValue="0">
                    <Indices>1 2 3 4 5 6 7 8 9 10 11 12 13</Indices>
                    <REAL-Entries>57.0 2366150.0 6361799.0 6633050.0 93.0 1022.5105 -3.1316159 6.289568 7.017405 -0.0061086523 -0.0012217305 -0.0036651916 0.0</REAL-Entries>
                </REAL-SparseArray>
            </VectorInstance>
            <VectorInstance id="133">
                <REAL-SparseArray n="14" defaultValue="0">
                    <Indices>1 2 3 4 5 6 7 8 9 10 11 12 13</Indices>
                    <REAL-Entries>68.0 1510387.0 6188915.0 6095634.0 96.0 1022.7986 -2.7269957 9.11712 2.8443117 -0.0012217305 0.0 0.0012217305 0.0</REAL-Entries>
                </REAL-SparseArray>
            </VectorInstance>
            <VectorInstance id="135">
                <REAL-SparseArray n="14" defaultValue="0">
                    <Indices>1 2 3 4 5 6 7 8 9 10 11 12 13</Indices>
                    <REAL-Entries>62.0 1644365.0 6177444.0 6125350.0 97.0 1023.02686 -2.6671407 9.097966 2.8754363 0.0 0.0036651916 -0.0061086523 0.0</REAL-Entries>
                </REAL-SparseArray>
            </VectorInstance>
            <VectorInstance id="142">
                <REAL-SparseArray n="14" defaultValue="0">
                    <Indices>1 2 3 4 5 6 7 8 9 10 11 12 13</Indices>
                    <REAL-Entries>72.0 1719252.0 5960060.0 6253195.0 87.0 1021.61206 7.7189064 -2.3343468 -5.521029 0.07819075 -0.08552113 -1.7311921 0.0</REAL-Entries>
                </REAL-SparseArray>
            </VectorInstance>
            <VectorInstance id="143">
                <REAL-SparseArray n="14" defaultValue="0">
                    <Indices>1 2 3 4 5 6 7 8 9 10 11 12 13</Indices>
                    <REAL-Entries>68.0 2054978.0 6118320.0 6490821.0 87.0 1021.79443 -2.861071 7.66384 5.451597 0.32498032 0.087964594 -0.3921755 0.0</REAL-Entries>
                </REAL-SparseArray>
            </VectorInstance>
            <VectorInstance id="148">
                <REAL-SparseArray n="14" defaultValue="0">
                    <Indices>1 2 3 4 5 6 7 8 9 10 11 12 13</Indices>
                    <REAL-Entries>85.0 2299875.0 6314793.0 6544539.0 97.0 1021.6582 -0.7182605 2.669535 -9.540894 -0.26145032 0.11362094 -0.081855945 12.0</REAL-Entries>
                </REAL-SparseArray>
            </VectorInstance>
            <VectorInstance id="152">
                <REAL-SparseArray n="14" defaultValue="0">
                    <Indices>1 2 3 4 5 6 7 8 9 10 11 12 13</Indices>
                    <REAL-Entries>96.0 1896634.0 6047347.0 6604978.0 96.0 1021.61084 -5.645528 7.5082164 0.8643068 0.062308256 0.04886922 -0.26633725 0.0</REAL-Entries>
                </REAL-SparseArray>
            </VectorInstance>
            <VectorInstance id="153">
                <REAL-SparseArray n="14" defaultValue="0">
                    <Indices>1 2 3 4 5 6 7 8 9 10 11 12 13</Indices>
                    <REAL-Entries>66.0 1597279.0 5889588.0 6277399.0 87.0 1021.645 3.6942532 0.45968673 -8.99741 0.012217305 -0.02565634 0.009773844 0.0</REAL-Entries>
                </REAL-SparseArray>
            </VectorInstance>
            <VectorInstance id="154">
                <REAL-SparseArray n="14" defaultValue="0">
                    <Indices>1 2 3 4 5 6 7 8 9 10 11 12 13</Indices>
                    <REAL-Entries>63.0 1588080.0 6165196.0 6085913.0 97.0 1023.0332 -2.8299465 9.095572 2.7748797 -0.002443461 0.0 -0.004886922 0.0</REAL-Entries>
                </REAL-SparseArray>
            </VectorInstance>
            <VectorInstance id="157">
                <REAL-SparseArray n="14" defaultValue="0">
                    <Indices>1 2 3 4 5 6 7 8 9 10 11 12 13</Indices>
                    <REAL-Entries>58.0 2220845.0 6257695.0 6504329.0 93.0 1022.4087 -3.2609026 6.205771 6.993463 -0.0012217305 0.0 0.0012217305 0.0</REAL-Entries>
                </REAL-SparseArray>
            </VectorInstance>
            <VectorInstance id="158">
                <REAL-SparseArray n="14" defaultValue="0">
                    <Indices>1 2 3 4 5 6 7 8 9 10 11 12 13</Indices>
                    <REAL-Entries>88.0 1972907.0 6251999.0 6552170.0 97.0 1021.6655 -3.8115692 1.3383588 -8.935161 -0.07941248 0.08307768 -0.5314528 8.0</REAL-Entries>
                </REAL-SparseArray>
            </VectorInstance>
            <VectorInstance id="162">
                <REAL-SparseArray n="14" defaultValue="0">
                    <Indices>1 2 3 4 5 6 7 8 9 10 11 12 13</Indices>
                    <REAL-Entries>65.0 1609614.0 6175161.0 6112942.0 96.0 1023.0061 -2.834735 9.105149 2.861071 0.0 -0.002443461 -0.002443461 0.0</REAL-Entries>
                </REAL-SparseArray>
            </VectorInstance>
            <VectorInstance id="164">
                <REAL-SparseArray n="14" defaultValue="0">
                    <Indices>1 2 3 4 5 6 7 8 9 10 11 12 13</Indices>
                    <REAL-Entries>147.0 2186714.0 6214772.0 6533019.0 84.0 1021.59814 6.4260373 4.9176903 -2.066196 -0.44348818 -0.172264 -0.22479841 0.0</REAL-Entries>
                </REAL-SparseArray>
            </VectorInstance>
            <VectorInstance id="173">
                <REAL-SparseArray n="14" defaultValue="0">
                    <Indices>1 2 3 4 5 6 7 8 9 10 11 12 13</Indices>
                    <REAL-Entries>70.0 2269321.0 6308985.0 6545327.0 87.0 1021.7012 -7.5968018 -4.9559975 4.0414124 0.06841691 -0.028099801 -0.012217305 0.0</REAL-Entries>
                </REAL-SparseArray>
            </VectorInstance>
            <VectorInstance id="182">
                <REAL-SparseArray n="14" defaultValue="0">
                    <Indices>1 2 3 4 5 6 7 8 9 10 11 12 13</Indices>
                    <REAL-Entries>65.0 1514397.0 6200455.0 6106464.0 96.0 1022.7622 -2.8083985 9.102755 2.777274 -0.0036651916 -0.0036651916 -0.0012217305 0.0</REAL-Entries>
                </REAL-SparseArray>
            </VectorInstance>
            <VectorInstance id="185">
                <REAL-SparseArray n="14" defaultValue="0">
                    <Indices>1 2 3 4 5 6 7 8 9 10 11 12 13</Indices>
                    <REAL-Entries>86.0 1496426.0 5871630.0 6416089.0 97.0 1021.63574 -3.3399115 2.5354595 -8.731653 0.029321533 0.029321533 0.02076942 12.0</REAL-Entries>
                </REAL-SparseArray>
            </VectorInstance>
            <VectorInstance id="186">
                <REAL-SparseArray n="14" defaultValue="0">
                    <Indices>1 2 3 4 5 6 7 8 9 10 11 12 13</Indices>
                    <REAL-Entries>68.0 1515854.0 6227969.0 6140771.0 96.0 1022.75464 -2.6527755 9.0476885 2.9616275 0.0 -0.002443461 -0.002443461 0.0</REAL-Entries>
                </REAL-SparseArray>
            </VectorInstance>
            <VectorInstance id="189">
                <REAL-SparseArray n="14" defaultValue="0">
                    <Indices>1 2 3 4 5 6 7 8 9 10 11 12 13</Indices>
                    <REAL-Entries>55.0 2365376.0 6321556.0 6601512.0 91.0 1022.4502 -3.1364043 6.2345014 7.0102224 -0.002443461 0.0 0.0012217305 0.0</REAL-Entries>
                </REAL-SparseArray>
            </VectorInstance>
            <VectorInstance id="190">
                <REAL-SparseArray n="14" defaultValue="0">
                    <Indices>1 2 3 4 5 6 7 8 9 10 11 12 13</Indices>
                    <REAL-Entries>65.0 1543822.0 6212787.0 6135836.0 96.0 1022.8445 -2.815581 9.0429 2.8419175 -0.002443461 -0.002443461 0.004886922 0.0</REAL-Entries>
                </REAL-SparseArray>
            </VectorInstance>
            <VectorInstance id="192">
                <REAL-SparseArray n="14" defaultValue="0">
                    <Indices>1 2 3 4 5 6 7 8 9 10 11 12 13</Indices>
                    <REAL-Entries>61.0 2173840.0 6252354.0 6476803.0 93.0 1022.4612 -3.25372 6.303933 6.9862804 -0.0012217305 0.0 -0.002443461 0.0</REAL-Entries>
                </REAL-SparseArray>
            </VectorInstance>
            <VectorInstance id="198">
                <REAL-SparseArray n="14" defaultValue="0">
                    <Indices>1 2 3 4 5 6 7 8 9 10 11 12 13</Indices>
                    <REAL-Entries>89.0 2320489.0 6369851.0 6574530.0 97.0 1021.74316 -6.9767036 5.1235914 -4.6399627 0.18936823 0.408058 0.97249746 0.0</REAL-Entries>
                </REAL-SparseArray>
            </VectorInstance>
            <VectorInstance id="213">
                <REAL-SparseArray n="14" defaultValue="0">
                    <Indices>1 2 3 4 5 6 7 8 9 10 11 12 13</Indices>
                    <REAL-Entries>66.0 1600059.0 6182177.0 6113960.0 96.0 1023.00806 -2.7844565 9.054871 2.8060043 0.0 0.0 0.0 0.0</REAL-Entries>
                </REAL-SparseArray>
            </VectorInstance>
            <VectorInstance id="217">
                <REAL-SparseArray n="14" defaultValue="0">
                    <Indices>1 2 3 4 5 6 7 8 9 10 11 12 13</Indices>
                    <REAL-Entries>59.0 1762677.0 5916850.0 6277397.0 87.0 1021.5913 8.360553 3.560178 -3.8642416 -0.004886922 0.010995574 0.002443461 0.0</REAL-Entries>
                </REAL-SparseArray>
            </VectorInstance>
            <VectorInstance id="222">
                <REAL-SparseArray n="14" defaultValue="0">
                    <Indices>1 2 3 4 5 6 7 8 9 10 11 12 13</Indices>
                    <REAL-Entries>64.0 1591636.0 6162200.0 6093996.0 96.0 1023.0298 -2.8491 9.033323 2.8634653 -0.0012217305 0.0012217305 -0.0012217305 0.0</REAL-Entries>
                </REAL-SparseArray>
            </VectorInstance>
            <VectorInstance id="223">
                <REAL-SparseArray n="14" defaultValue="0">
                    <Indices>1 2 3 4 5 6 7 8 9 10 11 12 13</Indices>
                    <REAL-Entries>65.0 1635230.0 6180168.0 6127296.0 96.0 1023.0032 -2.743755 9.016563 2.8682537 0.0012217305 -0.0012217305 0.002443461 0.0</REAL-Entries>
                </REAL-SparseArray>
            </VectorInstance>
            <VectorInstance id="233">
                <REAL-SparseArray n="14" defaultValue="0">
                    <Indices>1 2 3 4 5 6 7 8 9 10 11 12 13</Indices>
                    <REAL-Entries>58.0 2234848.0 6259325.0 6513714.0 93.0 1022.447 -3.2680852 6.289568 6.9862804 -0.008552114 -0.0012217305 0.004886922 0.0</REAL-Entries>
                </REAL-SparseArray>
            </VectorInstance>
            <VectorInstance id="242">
                <REAL-SparseArray n="14" defaultValue="0">
                    <Indices>1 2 3 4 5 6 7 8 9 10 11 12 13</Indices>
                    <REAL-Entries>79.0 1851016.0 6175164.0 6655924.0 97.0 1021.655 -3.6870706 7.9463553 -4.405331 0.008552114 0.008552114 0.019547688 0.0</REAL-Entries>
                </REAL-SparseArray>
            </VectorInstance>
            <VectorInstance id="243">
                <REAL-SparseArray n="14" defaultValue="0">
                    <Indices>1 2 3 4 5 6 7 8 9 10 11 12 13</Indices>
                    <REAL-Entries>62.0 1631855.0 6188611.0 6137313.0 96.0 1023.0166 -2.834735 9.090784 2.815581 -0.004886922 -0.007330383 0.0 0.0</REAL-Entries>
                </REAL-SparseArray>
            </VectorInstance>
            <VectorInstance id="247">
                <REAL-SparseArray n="14" defaultValue="0">
                    <Indices>1 2 3 4 5 6 7 8 9 10 11 12 13</Indices>
                    <REAL-Entries>60.0 1661153.0 6173617.0 6117748.0 97.0 1023.0061 -2.695871 8.995016 2.882619 -0.0012217305 0.0012217305 -0.013439035 0.0</REAL-Entries>
                </REAL-SparseArray>
            </VectorInstance>
            <VectorInstance id="251">
                <REAL-SparseArray n="14" defaultValue="0">
                    <Indices>1 2 3 4 5 6 7 8 9 10 11 12 13</Indices>
                    <REAL-Entries>64.0 1536354.0 6204910.0 6105140.0 96.0 1022.77295 -2.7581203 9.148245 2.861071 -0.0012217305 -0.0012217305 0.0 0.0</REAL-Entries>
                </REAL-SparseArray>
            </VectorInstance>
            <VectorInstance id="259">
                <REAL-SparseArray n="14" defaultValue="0">
                    <Indices>1 2 3 4 5 6 7 8 9 10 11 12 13</Indices>
                    <REAL-Entries>58.0 2236405.0 6257628.0 6517869.0 92.0 1022.4758 -3.2106245 6.2392898 6.979098 -0.010995574 0.0012217305 0.0036651916 0.0</REAL-Entries>
                </REAL-SparseArray>
            </VectorInstance>
            <VectorInstance id="270">
                <REAL-SparseArray n="14" defaultValue="0">
                    <Indices>1 2 3 4 5 6 7 8 9 10 11 12 13</Indices>
                    <REAL-Entries>62.0 1608772.0 6176212.0 6121006.0 96.0 1023.052 -2.7700913 9.0716305 2.846706 0.0012217305 0.0012217305 0.0061086523 0.0</REAL-Entries>
                </REAL-SparseArray>
            </VectorInstance>
            <VectorInstance id="271">
                <REAL-SparseArray n="14" defaultValue="0">
                    <Indices>1 2 3 4 5 6 7 8 9 10 11 12 13</Indices>
                    <REAL-Entries>69.0 1315577.0 5943371.0 5946155.0 97.0 1022.7434 -4.9536033 8.130709 -2.4229321 0.0036651916 0.002443461 -0.004886922 0.0</REAL-Entries>
                </REAL-SparseArray>
            </VectorInstance>
            <VectorInstance id="272">
                <REAL-SparseArray n="14" defaultValue="0">
                    <Indices>1 2 3 4 5 6 7 8 9 10 11 12 13</Indices>
                    <REAL-Entries>63.0 1461084.0 6235682.0 6120407.0 96.0 1022.7368 -2.621651 9.0716305 2.8921957 0.0 -0.0012217305 -0.0012217305 0.0</REAL-Entries>
                </REAL-SparseArray>
            </VectorInstance>
            <VectorInstance id="276">
                <REAL-SparseArray n="14" defaultValue="0">
                    <Indices>1 2 3 4 5 6 7 8 9 10 11 12 13</Indices>
                    <REAL-Entries>71.0 2140304.0 6409883.0 6490795.0 87.0 1021.8369 0.59376204 9.809045 1.1180922 -0.0061086523 -0.021991149 0.037873644 0.0</REAL-Entries>
                </REAL-SparseArray>
            </VectorInstance>
            <VectorInstance id="280">
                <REAL-SparseArray n="14" defaultValue="0">
                    <Indices>1 2 3 4 5 6 7 8 9 10 11 12 13</Indices>
                    <REAL-Entries>58.0 2261815.0 6269706.0 6523171.0 92.0 1022.4629 -3.2609026 6.3063273 6.993463 0.0 0.0 0.0036651916 0.0</REAL-Entries>
                </REAL-SparseArray>
            </VectorInstance>
            <VectorInstance id="287">
                <REAL-SparseArray n="14" defaultValue="0">
                    <Indices>1 2 3 4 5 6 7 8 9 10 11 12 13</Indices>
                    <REAL-Entries>90.0 1943357.0 6117292.0 6665869.0 97.0 1021.51904 -5.3199162 2.456451 7.2448545 -0.77457714 -0.2003638 2.32984 24.0</REAL-Entries>
                </REAL-SparseArray>
            </VectorInstance>
            <VectorInstance id="297">
                <REAL-SparseArray n="14" defaultValue="0">
                    <Indices>1 2 3 4 5 6 7 8 9 10 11 12 13</Indices>
                    <REAL-Entries>64.0 1575142.0 6171704.0 6108312.0 96.0 1022.93677 -2.7102363 9.100361 2.8443117 0.0012217305 0.0 0.0 0.0</REAL-Entries>
                </REAL-SparseArray>
            </VectorInstance>
            <VectorInstance id="298">
                <REAL-SparseArray n="14" defaultValue="0">
                    <Indices>1 2 3 4 5 6 7 8 9 10 11 12 13</Indices>
                    <REAL-Entries>70.0 2138477.0 6281239.0 6497612.0 96.0 1021.6946 2.1906946 1.3814543 6.9024835 -0.15271631 -0.6169739 1.7629571 4.0</REAL-Entries>
                </REAL-SparseArray>
            </VectorInstance>
            <VectorInstance id="302">
                <REAL-SparseArray n="14" defaultValue="0">
                    <Indices>1 2 3 4 5 6 7 8 9 10 11 12 13</Indices>
                    <REAL-Entries>139.0 2190033.0 6106570.0 6631330.0 95.05156779198077 1021.5476 -5.0757074 7.7907324 2.1547816 -0.02076942 -0.0012217305 0.07574729 8.0</REAL-Entries>
                </REAL-SparseArray>
            </VectorInstance>
            <VectorInstance id="303">
                <REAL-SparseArray n="14" defaultValue="0">
                    <Indices>1 2 3 4 5 6 7 8 9 10 11 12 13</Indices>
                    <REAL-Entries>57.0 2336706.0 6308260.0 6589385.0 90.0 1022.4314 -3.229778 6.241684 6.979098 0.004886922 0.0 -0.0012217305 0.0</REAL-Entries>
                </REAL-SparseArray>
            </VectorInstance>
            <VectorInstance id="304">
                <REAL-SparseArray n="14" defaultValue="0">
                    <Indices>1 2 3 4 5 6 7 8 9 10 11 12 13</Indices>
                    <REAL-Entries>69.0 1345190.0 5952706.0 5945222.0 99.0 1022.70874 -5.020641 8.099585 -2.3942018 0.0036651916 0.0 -0.0012217305 0.0</REAL-Entries>
                </REAL-SparseArray>
            </VectorInstance>
            <VectorInstance id="311">
                <REAL-SparseArray n="14" defaultValue="0">
                    <Indices>1 2 3 4 5 6 7 8 9 10 11 12 13</Indices>
                    <REAL-Entries>62.0 1446167.0 6214784.0 6091655.0 96.0 1022.7639 -2.7868507 9.109938 2.8898015 0.0 -0.0012217305 0.0036651916 0.0</REAL-Entries>
                </REAL-SparseArray>
            </VectorInstance>
            <VectorInstance id="322">
                <REAL-SparseArray n="14" defaultValue="0">
                    <Indices>1 2 3 4 5 6 7 8 9 10 11 12 13</Indices>
                    <REAL-Entries>73.0 1789813.0 6180919.0 6337989.0 87.0 1021.8391 6.847417 7.338228 1.6232687 0.22357668 1.1569787 0.035430185 0.0</REAL-Entries>
                </REAL-SparseArray>
            </VectorInstance>
            <VectorInstance id="334">
                <REAL-SparseArray n="14" defaultValue="0">
                    <Indices>1 2 3 4 5 6 7 8 9 10 11 12 13</Indices>
                    <REAL-Entries>72.0 2059115.0 6323886.0 6530995.0 87.0 1021.79346 7.9822683 1.4939818 6.078878 -0.24801129 0.0012217305 0.19303341 0.0</REAL-Entries>
                </REAL-SparseArray>
            </VectorInstance>
            <VectorInstance id="346">
                <REAL-SparseArray n="14" defaultValue="0">
                    <Indices>1 2 3 4 5 6 7 8 9 10 11 12 13</Indices>
                    <REAL-Entries>64.0 1538848.0 6203920.0 6124671.0 96.0 1022.82666 -2.755726 9.085996 2.8060043 -0.0012217305 -0.0012217305 -0.0012217305 0.0</REAL-Entries>
                </REAL-SparseArray>
            </VectorInstance>
            <VectorInstance id="364">
                <REAL-SparseArray n="14" defaultValue="0">
                    <Indices>1 2 3 4 5 6 7 8 9 10 11 12 13</Indices>
                    <REAL-Entries>66.0 1943055.0 6150383.0 6386678.0 87.0 1021.73486 6.4787097 5.389348 5.2840033 0.008552114 0.02321288 -0.037873644 0.0</REAL-Entries>
                </REAL-SparseArray>
            </VectorInstance>
            <VectorInstance id="376">
                <REAL-SparseArray n="14" defaultValue="0">
                    <Indices>1 2 3 4 5 6 7 8 9 10 11 12 13</Indices>
                    <REAL-Entries>61.0 1613516.0 6218918.0 6156395.0 97.0 1022.8618 -2.861071 9.064447 2.8898015 -0.002443461 -0.004886922 0.018325957 0.0</REAL-Entries>
                </REAL-SparseArray>
            </VectorInstance>
            <VectorInstance id="378">
                <REAL-SparseArray n="14" defaultValue="0">
                    <Indices>1 2 3 4 5 6 7 8 9 10 11 12 13</Indices>
                    <REAL-Entries>56.0 2251101.0 6265059.0 6518550.0 92.0 1022.5044 -3.3087866 6.181829 7.017405 0.0 0.0012217305 -0.004886922 0.0</REAL-Entries>
                </REAL-SparseArray>
            </VectorInstance>
            <VectorInstance id="386">
                <REAL-SparseArray n="14" defaultValue="0">
                    <Indices>1 2 3 4 5 6 7 8 9 10 11 12 13</Indices>
                    <REAL-Entries>64.0 1760371.0 5919509.0 6284597.0 87.0 1021.60376 8.274361 3.5793316 -3.904943 0.0 0.004886922 -0.0036651916 0.0</REAL-Entries>
                </REAL-SparseArray>
            </VectorInstance>
            <VectorInstance id="388">
                <REAL-SparseArray n="14" defaultValue="0">
                    <Indices>1 2 3 4 5 6 7 8 9 10 11 12 13</Indices>
                    <REAL-Entries>66.0 1630527.0 6190924.0 6129127.0 97.0 1023.04004 -2.6288335 9.045294 2.8419175 -0.008552114 -0.004886922 0.004886922 0.0</REAL-Entries>
                </REAL-SparseArray>
            </VectorInstance>
            <VectorInstance id="395">
                <REAL-SparseArray n="14" defaultValue="0">
                    <Indices>1 2 3 4 5 6 7 8 9 10 11 12 13</Indices>
                    <REAL-Entries>60.0 1496452.0 6076193.0 6024201.0 96.0 1023.0491 -2.1260512 9.433155 2.2242134 0.0036651916 -0.0036651916 -0.0012217305 0.0</REAL-Entries>
                </REAL-SparseArray>
            </VectorInstance>
            <VectorInstance id="402">
                <REAL-SparseArray n="14" defaultValue="0">
                    <Indices>1 2 3 4 5 6 7 8 9 10 11 12 13</Indices>
                    <REAL-Entries>100.0 1628536.0 6280281.0 6636684.0 97.0 1021.53076 -6.471527 2.1811178 2.042254 2.2883012 1.5088371 2.4410176 4.0</REAL-Entries>
                </REAL-SparseArray>
            </VectorInstance>
            <VectorInstance id="407">
                <REAL-SparseArray n="14" defaultValue="0">
                    <Indices>1 2 3 4 5 6 7 8 9 10 11 12 13</Indices>
                    <REAL-Entries>57.0 2225009.0 6258863.0 6510004.0 93.0 1022.45996 -3.2680852 6.232107 6.9838862 -0.0036651916 0.0 -0.002443461 0.0</REAL-Entries>
                </REAL-SparseArray>
            </VectorInstance>
            <VectorInstance id="408">
                <REAL-SparseArray n="14" defaultValue="0">
                    <Indices>1 2 3 4 5 6 7 8 9 10 11 12 13</Indices>
                    <REAL-Entries>65.0 1564171.0 6205940.0 6133590.0 96.0 1022.8579 -2.6719291 9.174581 2.8874073 -0.0036651916 -0.0061086523 0.0 0.0</REAL-Entries>
                </REAL-SparseArray>
            </VectorInstance>
            <VectorInstance id="412">
                <REAL-SparseArray n="14" defaultValue="0">
                    <Indices>1 2 3 4 5 6 7 8 9 10 11 12 13</Indices>
                    <REAL-Entries>58.0 2154302.0 6257587.0 6485519.0 93.0 1022.4419 -3.2848446 6.289568 6.9240313 0.009773844 0.0 0.004886922 0.0</REAL-Entries>
                </REAL-SparseArray>
            </VectorInstance>
            <VectorInstance id="415">
                <REAL-SparseArray n="14" defaultValue="0">
                    <Indices>1 2 3 4 5 6 7 8 9 10 11 12 13</Indices>
                    <REAL-Entries>56.0 2378618.0 6333153.0 6611783.0 92.0 1022.4839 -3.1866825 6.279991 7.07726 0.0036651916 -0.002443461 -0.0012217305 0.0</REAL-Entries>
                </REAL-SparseArray>
            </VectorInstance>
            <VectorInstance id="421">
                <REAL-SparseArray n="14" defaultValue="0">
                    <Indices>1 2 3 4 5 6 7 8 9 10 11 12 13</Indices>
                    <REAL-Entries>56.0 2379140.0 6338589.0 6619853.0 92.0 1022.4905 -3.1627405 6.2225304 7.050924 -0.0012217305 -0.002443461 0.0 0.0</REAL-Entries>
                </REAL-SparseArray>
            </VectorInstance>
            <VectorInstance id="423">
                <REAL-SparseArray n="14" defaultValue="0">
                    <Indices>1 2 3 4 5 6 7 8 9 10 11 12 13</Indices>
                    <REAL-Entries>63.0 1555994.0 6192547.0 6115500.0 96.0 1022.83105 -2.7724855 9.066842 2.8778305 -0.0012217305 -0.0012217305 0.0012217305 0.0</REAL-Entries>
                </REAL-SparseArray>
            </VectorInstance>
            <VectorInstance id="430">
                <REAL-SparseArray n="14" defaultValue="0">
                    <Indices>1 2 3 4 5 6 7 8 9 10 11 12 13</Indices>
                    <REAL-Entries>61.0 1652406.0 6171029.0 6110942.0 97.0 1023.0127 -2.7150247 9.13388 2.8299465 -0.007330383 -0.007330383 0.002443461 0.0</REAL-Entries>
                </REAL-SparseArray>
            </VectorInstance>
            <VectorInstance id="434">
                <REAL-SparseArray n="14" defaultValue="0">
                    <Indices>1 2 3 4 5 6 7 8 9 10 11 12 13</Indices>
                    <REAL-Entries>64.0 1318309.0 5989239.0 5956995.0 97.0 1022.7134 -5.068525 8.094796 -2.4899697 -0.0061086523 0.0036651916 0.007330383 0.0</REAL-Entries>
                </REAL-SparseArray>
            </VectorInstance>
            <VectorInstance id="435">
                <REAL-SparseArray n="14" defaultValue="0">
                    <Indices>1 2 3 4 5 6 7 8 9 10 11 12 13</Indices>
                    <REAL-Entries>62.0 1662975.0 6176191.0 6121891.0 97.0 1023.0447 -2.717419 8.990228 2.846706 -0.004886922 -0.004886922 0.0036651916 0.0</REAL-Entries>
                </REAL-SparseArray>
            </VectorInstance>
            <VectorInstance id="437">
                <REAL-SparseArray n="14" defaultValue="0">
                    <Indices>1 2 3 4 5 6 7 8 9 10 11 12 13</Indices>
                    <REAL-Entries>68.0 1665783.0 6491979.0 6318873.0 97.0 1022.6821 3.301604 7.7787614 5.3821654 -0.0036651916 -0.0012217305 0.0012217305 0.0</REAL-Entries>
                </REAL-SparseArray>
            </VectorInstance>
            <VectorInstance id="447">
                <REAL-SparseArray n="14" defaultValue="0">
                    <Indices>1 2 3 4 5 6 7 8 9 10 11 12 13</Indices>
                    <REAL-Entries>70.0 1907847.0 6076873.0 6318867.0 87.0 1021.73584 0.9792285 7.357382 6.6774287 0.02321288 0.02321288 0.007330383 0.0</REAL-Entries>
                </REAL-SparseArray>
            </VectorInstance>
            <VectorInstance id="451">
                <REAL-SparseArray n="14" defaultValue="0">
                    <Indices>1 2 3 4 5 6 7 8 9 10 11 12 13</Indices>
                    <REAL-Entries>66.0 1603861.0 6194347.0 6142413.0 96.0 1022.9182 -2.72939 9.083601 2.8898015 -0.002443461 -0.002443461 0.008552114 0.0</REAL-Entries>
                </REAL-SparseArray>
            </VectorInstance>
            <VectorInstance id="452">
                <REAL-SparseArray n="14" defaultValue="0">
                    <Indices>1 2 3 4 5 6 7 8 9 10 11 12 13</Indices>
                    <REAL-Entries>60.0 2192650.0 6255229.0 6485815.0 93.0 1022.42285 -3.3734303 6.279991 6.9360023 -0.0061086523 0.0 -0.002443461 0.0</REAL-Entries>
                </REAL-SparseArray>
            </VectorInstance>
            <VectorInstance id="466">
                <REAL-SparseArray n="14" defaultValue="0">
                    <Indices>1 2 3 4 5 6 7 8 9 10 11 12 13</Indices>
                    <REAL-Entries>65.0 1495837.0 6209752.0 6087398.0 96.0 1022.76416 -2.7605145 9.076419 2.837129 0.004886922 0.0061086523 -0.013439035 0.0</REAL-Entries>
                </REAL-SparseArray>
            </VectorInstance>
            <VectorInstance id="473">
                <REAL-SparseArray n="14" defaultValue="0">
                    <Indices>1 2 3 4 5 6 7 8 9 10 11 12 13</Indices>
                    <REAL-Entries>66.0 1953880.0 6322389.0 6616636.0 96.0 1021.8252 3.4332852 7.1634517 5.5521536 -0.002443461 -0.06963864 0.11484267 0.0</REAL-Entries>
                </REAL-SparseArray>
            </VectorInstance>
            <VectorInstance id="478">
                <REAL-SparseArray n="14" defaultValue="0">
                    <Indices>1 2 3 4 5 6 7 8 9 10 11 12 13</Indices>
                    <REAL-Entries>63.0 1517797.0 6213357.0 6108248.0 96.0 1022.75757 -2.6910827 9.090784 2.8083985 0.0012217305 -0.0061086523 0.0036651916 0.0</REAL-Entries>
                </REAL-SparseArray>
            </VectorInstance>
            <VectorInstance id="486">
                <REAL-SparseArray n="14" defaultValue="0">
                    <Indices>1 2 3 4 5 6 7 8 9 10 11 12 13</Indices>
                    <REAL-Entries>62.0 1437760.0 6089890.0 6010755.0 96.0 1023.0845 -2.1140802 9.394848 2.255338 -0.0036651916 -0.0012217305 -0.004886922 0.0</REAL-Entries>
                </REAL-SparseArray>
            </VectorInstance>
            <VectorInstance id="493">
                <REAL-SparseArray n="14" defaultValue="0">
                    <Indices>1 2 3 4 5 6 7 8 9 10 11 12 13</Indices>
                    <REAL-Entries>74.0 2071387.0 6357841.0 6504339.0 87.0 1021.7981 2.7748797 6.38773 7.335834 0.052534413 0.08307768 -0.12461651 0.0</REAL-Entries>
                </REAL-SparseArray>
            </VectorInstance>
            <VectorInstance id="503">
                <REAL-SparseArray n="14" defaultValue="0">
                    <Indices>1 2 3 4 5 6 7 8 9 10 11 12 13</Indices>
                    <REAL-Entries>59.0 2335076.0 6299401.0 6575282.0 91.0 1022.3882 -3.2106245 6.2464724 6.9982514 0.0012217305 0.0 0.0 0.0</REAL-Entries>
                </REAL-SparseArray>
            </VectorInstance>
            <VectorInstance id="506">
                <REAL-SparseArray n="14" defaultValue="0">
                    <Indices>1 2 3 4 5 6 7 8 9 10 11 12 13</Indices>
                    <REAL-Entries>65.0 1438983.0 6091765.0 6005942.0 96.0 1023.12036 -2.0853498 9.3733 2.3080103 -0.0061086523 -0.0012217305 -0.007330383 0.0</REAL-Entries>
                </REAL-SparseArray>
            </VectorInstance>
            <VectorInstance id="511">
                <REAL-SparseArray n="14" defaultValue="0">
                    <Indices>1 2 3 4 5 6 7 8 9 10 11 12 13</Indices>
                    <REAL-Entries>62.0 1746855.0 5923663.0 6290050.0 87.0 1021.5947 8.317456 3.6774938 -3.8498764 0.0012217305 -0.0012217305 0.0 0.0</REAL-Entries>
                </REAL-SparseArray>
            </VectorInstance>
            <VectorInstance id="516">
                <REAL-SparseArray n="14" defaultValue="0">
                    <Indices>1 2 3 4 5 6 7 8 9 10 11 12 13</Indices>
                    <REAL-Entries>60.0 1512944.0 6104437.0 6033571.0 96.0 1023.0554 -2.0374656 9.404425 2.2625206 -0.0036651916 -0.002443461 0.004886922 0.0</REAL-Entries>
                </REAL-SparseArray>
            </VectorInstance>
            <VectorInstance id="517">
                <REAL-SparseArray n="14" defaultValue="0">
                    <Indices>1 2 3 4 5 6 7 8 9 10 11 12 13</Indices>
                    <REAL-Entries>73.0 1974984.0 6285133.0 6580920.0 98.0 1021.7063 9.627085 -0.78529817 2.906561 0.0012217305 -0.047647487 0.061086524 0.0</REAL-Entries>
                </REAL-SparseArray>
            </VectorInstance>
            <VectorInstance id="522">
                <REAL-SparseArray n="14" defaultValue="0">
                    <Indices>1 2 3 4 5 6 7 8 9 10 11 12 13</Indices>
                    <REAL-Entries>69.0 2174751.0 6353554.0 6550680.0 87.0 1021.7993 0.39025488 8.020576 5.5617304 0.06719518 -0.10140363 0.10140363 0.0</REAL-Entries>
                </REAL-SparseArray>
            </VectorInstance>
            <VectorInstance id="524">
                <REAL-SparseArray n="14" defaultValue="0">
                    <Indices>1 2 3 4 5 6 7 8 9 10 11 12 13</Indices>
                    <REAL-Entries>66.0 2063207.0 6363824.0 6633199.0 87.0 1021.80273 1.8315643 8.240842 5.2983685 -0.009773844 0.010995574 0.013439035 0.0</REAL-Entries>
                </REAL-SparseArray>
            </VectorInstance>
            <VectorInstance id="525">
                <REAL-SparseArray n="14" defaultValue="0">
                    <Indices>1 2 3 4 5 6 7 8 9 10 11 12 13</Indices>
                    <REAL-Entries>56.0 2351137.0 6319826.0 6597655.0 91.0 1022.42017 -3.1603463 6.265626 7.026982 0.008552114 0.0012217305 0.0036651916 0.0</REAL-Entries>
                </REAL-SparseArray>
            </VectorInstance>
            <VectorInstance id="540">
                <REAL-SparseArray n="14" defaultValue="0">
                    <Indices>1 2 3 4 5 6 7 8 9 10 11 12 13</Indices>
                    <REAL-Entries>57.0 2313228.0 6292054.0 6559153.0 90.0 1022.40283 -3.1914709 6.2991447 7.00304 0.0012217305 0.0012217305 0.0012217305 0.0</REAL-Entries>
                </REAL-SparseArray>
            </VectorInstance>
            <VectorInstance id="542">
                <REAL-SparseArray n="14" defaultValue="0">
                    <Indices>1 2 3 4 5 6 7 8 9 10 11 12 13</Indices>
                    <REAL-Entries>70.0 1846498.0 6110625.0 6322692.0 87.0 1021.73804 -0.770933 7.795521 5.961562 0.028099801 -0.012217305 0.028099801 0.0</REAL-Entries>
                </REAL-SparseArray>
            </VectorInstance>
            <VectorInstance id="544">
                <REAL-SparseArray n="14" defaultValue="0">
                    <Indices>1 2 3 4 5 6 7 8 9 10 11 12 13</Indices>
                    <REAL-Entries>83.0 2138110.0 6301305.0 6748051.0 97.0 1021.4717 5.566519 -4.1706996 5.4563856 0.20280726 -1.8997909 2.0610592 0.0</REAL-Entries>
                </REAL-SparseArray>
            </VectorInstance>
            <VectorInstance id="545">
                <REAL-SparseArray n="14" defaultValue="0">
                    <Indices>1 2 3 4 5 6 7 8 9 10 11 12 13</Indices>
                    <REAL-Entries>63.0 1639248.0 6195258.0 6118457.0 97.0 1022.8657 -2.789245 9.090784 2.8275523 0.0012217305 0.0 -0.0036651916 0.0</REAL-Entries>
                </REAL-SparseArray>
            </VectorInstance>
            <VectorInstance id="547">
                <REAL-SparseArray n="14" defaultValue="0">
                    <Indices>1 2 3 4 5 6 7 8 9 10 11 12 13</Indices>
                    <REAL-Entries>67.0 2026543.0 6159384.0 6390449.0 87.0 1021.71533 1.2521675 9.797073 -0.5291186 -0.013439035 0.028099801 -0.04642576 0.0</REAL-Entries>
                </REAL-SparseArray>
            </VectorInstance>
            <VectorInstance id="552">
                <REAL-SparseArray n="14" defaultValue="0">
                    <Indices>1 2 3 4 5 6 7 8 9 10 11 12 13</Indices>
                    <REAL-Entries>57.0 1938706.0 6669051.0 6725353.0 95.05156779198077 1023.13354 -7.553706 5.875371 -0.074220255 0.27122417 -0.18692477 0.453262 40.0</REAL-Entries>
                </REAL-SparseArray>
            </VectorInstance>
            <VectorInstance id="558">
                <REAL-SparseArray n="14" defaultValue="0">
                    <Indices>1 2 3 4 5 6 7 8 9 10 11 12 13</Indices>
                    <REAL-Entries>61.0 1466155.0 6154629.0 6057821.0 97.0 1023.1067 -2.0518308 9.41879 2.2170308 -0.0036651916 -0.0012217305 -0.009773844 0.0</REAL-Entries>
                </REAL-SparseArray>
            </VectorInstance>
            <VectorInstance id="563">
                <REAL-SparseArray n="14" defaultValue="0">
                    <Indices>1 2 3 4 5 6 7 8 9 10 11 12 13</Indices>
                    <REAL-Entries>62.0 1479684.0 6212976.0 6089131.0 96.0 1022.7588 -2.8179753 9.095572 2.8395233 -0.0012217305 -0.0012217305 0.0 0.0</REAL-Entries>
                </REAL-SparseArray>
            </VectorInstance>
            <VectorInstance id="569">
                <REAL-SparseArray n="14" defaultValue="0">
                    <Indices>1 2 3 4 5 6 7 8 9 10 11 12 13</Indices>
                    <REAL-Entries>69.0 1767102.0 6104046.0 6369893.0 87.0 1021.7019 -3.6056678 8.269572 3.9217024 0.015882496 0.019547688 0.037873644 0.0</REAL-Entries>
                </REAL-SparseArray>
            </VectorInstance>
            <VectorInstance id="571">
                <REAL-SparseArray n="14" defaultValue="0">
                    <Indices>1 2 3 4 5 6 7 8 9 10 11 12 13</Indices>
                    <REAL-Entries>64.0 1553666.0 6195295.0 6122803.0 97.0 1022.8872 -2.8083985 9.069236 2.9257145 0.0 -0.002443461 -0.002443461 0.0</REAL-Entries>
                </REAL-SparseArray>
            </VectorInstance>
            <VectorInstance id="583">
                <REAL-SparseArray n="14" defaultValue="0">
                    <Indices>1 2 3 4 5 6 7 8 9 10 11 12 13</Indices>
                    <REAL-Entries>68.0 1744994.0 6277714.0 6672692.0 96.0 1021.6748 -2.054225 8.724471 -4.096479 -0.018325957 -0.0061086523 -0.002443461 0.0</REAL-Entries>
                </REAL-SparseArray>
            </VectorInstance>
            <VectorInstance id="586">
                <REAL-SparseArray n="14" defaultValue="0">
                    <Indices>1 2 3 4 5 6 7 8 9 10 11 12 13</Indices>
                    <REAL-Entries>64.0 1603701.0 6178439.0 6118281.0 96.0 1023.0032 -2.822764 8.980651 2.8419175 -0.0012217305 0.0 -0.0012217305 0.0</REAL-Entries>
                </REAL-SparseArray>
            </VectorInstance>
            <VectorInstance id="587">
                <REAL-SparseArray n="14" defaultValue="0">
                    <Indices>1 2 3 4 5 6 7 8 9 10 11 12 13</Indices>
                    <REAL-Entries>91.0 1717577.0 6211996.0 6485344.0 97.0 1021.6448 -3.3686419 -1.0630256 -9.0429 -0.08307768 -0.029321533 -0.12950343 8.0</REAL-Entries>
                </REAL-SparseArray>
            </VectorInstance>
            <VectorInstance id="588">
                <REAL-SparseArray n="14" defaultValue="0">
                    <Indices>1 2 3 4 5 6 7 8 9 10 11 12 13</Indices>
                    <REAL-Entries>59.0 2181393.0 6258078.0 6490423.0 93.0 1022.3889 -3.2752678 6.3087215 6.991069 0.0012217305 0.0 0.0012217305 0.0</REAL-Entries>
                </REAL-SparseArray>
            </VectorInstance>
            <VectorInstance id="593">
                <REAL-SparseArray n="14" defaultValue="0">
                    <Indices>1 2 3 4 5 6 7 8 9 10 11 12 13</Indices>
                    <REAL-Entries>65.0 2074568.0 6348832.0 6578492.0 87.0 1021.7883 9.354146 0.91697925 -3.4261026 0.009773844 -0.0012217305 -0.032986723 0.0</REAL-Entries>
                </REAL-SparseArray>
            </VectorInstance>
            <VectorInstance id="597">
                <REAL-SparseArray n="14" defaultValue="0">
                    <Indices>1 2 3 4 5 6 7 8 9 10 11 12 13</Indices>
                    <REAL-Entries>73.0 1593962.0 6528642.0 6323927.0 96.0 1022.7041 3.2992098 7.6710224 5.389348 -0.004886922 0.0036651916 0.0 0.0</REAL-Entries>
                </REAL-SparseArray>
            </VectorInstance>
            <VectorInstance id="610">
                <REAL-SparseArray n="14" defaultValue="0">
                    <Indices>1 2 3 4 5 6 7 8 9 10 11 12 13</Indices>
                    <REAL-Entries>69.0 2143100.0 6253715.0 6563634.0 98.0 1021.66284 7.050924 -5.451597 4.321534 -0.17104226 0.04642576 0.17959438 0.0</REAL-Entries>
                </REAL-SparseArray>
            </VectorInstance>
            <VectorInstance id="612">
                <REAL-SparseArray n="14" defaultValue="0">
                    <Indices>1 2 3 4 5 6 7 8 9 10 11 12 13</Indices>
                    <REAL-Entries>66.0 1627001.0 6200751.0 6148405.0 96.0 1022.91626 -2.8299465 9.088389 2.8083985 0.0012217305 -0.002443461 0.004886922 0.0</REAL-Entries>
                </REAL-SparseArray>
            </VectorInstance>
            <VectorInstance id="613">
                <REAL-SparseArray n="14" defaultValue="0">
                    <Indices>1 2 3 4 5 6 7 8 9 10 11 12 13</Indices>
                    <REAL-Entries>69.0 1338736.0 6230142.0 6080821.0 96.0 1023.10596 -2.0829554 9.414001 2.2697031 0.0036651916 0.0061086523 0.0036651916 0.0</REAL-Entries>
                </REAL-SparseArray>
            </VectorInstance>
            <VectorInstance id="615">
                <REAL-SparseArray n="14" defaultValue="0">
                    <Indices>1 2 3 4 5 6 7 8 9 10 11 12 13</Indices>
                    <REAL-Entries>64.0 1621257.0 6167718.0 6106522.0 96.0 1023.0112 -2.6910827 9.11712 2.8083985 0.0036651916 0.0 -0.0036651916 0.0</REAL-Entries>
                </REAL-SparseArray>
            </VectorInstance>
            <VectorInstance id="627">
                <REAL-SparseArray n="14" defaultValue="0">
                    <Indices>1 2 3 4 5 6 7 8 9 10 11 12 13</Indices>
                    <REAL-Entries>98.0 1975888.0 6161689.0 6598806.0 97.0 1021.5066 -6.090849 7.0006456 4.5322237 -0.12705997 0.30543262 0.09896017 0.0</REAL-Entries>
                </REAL-SparseArray>
            </VectorInstance>
            <VectorInstance id="630">
                <REAL-SparseArray n="14" defaultValue="0">
                    <Indices>1 2 3 4 5 6 7 8 9 10 11 12 13</Indices>
                    <REAL-Entries>60.0 1578550.0 6182558.0 6110739.0 96.0 1023.00464 -2.815581 9.141062 2.8658595 -0.0036651916 -0.002443461 0.002443461 0.0</REAL-Entries>
                </REAL-SparseArray>
            </VectorInstance>
            <VectorInstance id="632">
                <REAL-SparseArray n="14" defaultValue="0">
                    <Indices>1 2 3 4 5 6 7 8 9 10 11 12 13</Indices>
                    <REAL-Entries>63.0 1507006.0 6206869.0 6124723.0 96.0 1022.78467 -2.80361 9.054871 2.8299465 -0.0012217305 -0.0012217305 0.0036651916 0.0</REAL-Entries>
                </REAL-SparseArray>
            </VectorInstance>
            <VectorInstance id="636">
                <REAL-SparseArray n="14" defaultValue="0">
                    <Indices>1 2 3 4 5 6 7 8 9 10 11 12 13</Indices>
                    <REAL-Entries>89.0 1611142.0 6040873.0 6456469.0 97.0 1021.66675 -2.767697 3.4763808 -8.607155 0.0036651916 -0.014660766 0.002443461 16.0</REAL-Entries>
                </REAL-SparseArray>
            </VectorInstance>
            <VectorInstance id="637">
                <REAL-SparseArray n="14" defaultValue="0">
                    <Indices>1 2 3 4 5 6 7 8 9 10 11 12 13</Indices>
                    <REAL-Entries>59.0 1655465.0 6167199.0 6106963.0 97.0 1023.0293 -2.789245 9.083601 2.8299465 -0.002443461 -0.002443461 0.002443461 0.0</REAL-Entries>
                </REAL-SparseArray>
            </VectorInstance>
            <VectorInstance id="639">
                <REAL-SparseArray n="14" defaultValue="0">
                    <Indices>1 2 3 4 5 6 7 8 9 10 11 12 13</Indices>
                    <REAL-Entries>67.0 1624278.0 6165075.0 6099336.0 96.0 1023.0259 -2.7868507 9.052477 2.846706 -0.002443461 0.0 0.0 0.0</REAL-Entries>
                </REAL-SparseArray>
            </VectorInstance>
            <VectorInstance id="652">
                <REAL-SparseArray n="14" defaultValue="0">
                    <Indices>1 2 3 4 5 6 7 8 9 10 11 12 13</Indices>
                    <REAL-Entries>58.0 2144449.0 6254190.0 6480005.0 93.0 1022.4292 -3.347094 6.2847795 7.00304 -0.0012217305 -0.0036651916 0.0 0.0</REAL-Entries>
                </REAL-SparseArray>
            </VectorInstance>
            <VectorInstance id="658">
                <REAL-SparseArray n="14" defaultValue="0">
                    <Indices>1 2 3 4 5 6 7 8 9 10 11 12 13</Indices>
                    <REAL-Entries>62.0 2179178.0 6259497.0 6491896.0 93.0 1022.364 -3.2369606 6.2632318 6.9479733 -0.002443461 0.0 0.002443461 0.0</REAL-Entries>
                </REAL-SparseArray>
            </VectorInstance>
            <VectorInstance id="663">
                <REAL-SparseArray n="14" defaultValue="0">
                    <Indices>1 2 3 4 5 6 7 8 9 10 11 12 13</Indices>
                    <REAL-Entries>56.0 2304369.0 6284299.0 6562042.0 91.0 1022.3518 -3.2968156 6.220136 6.9719152 0.007330383 0.0 0.0012217305 0.0</REAL-Entries>
                </REAL-SparseArray>
            </VectorInstance>
            <VectorInstance id="667">
                <REAL-SparseArray n="14" defaultValue="0">
                    <Indices>1 2 3 4 5 6 7 8 9 10 11 12 13</Indices>
                    <REAL-Entries>66.0 2024820.0 6353292.0 6625570.0 87.0 1021.82666 1.958457 8.1881695 5.3007627 -0.0061086523 0.0012217305 0.0 0.0</REAL-Entries>
                </REAL-SparseArray>
            </VectorInstance>
            <VectorInstance id="673">
                <REAL-SparseArray n="14" defaultValue="0">
                    <Indices>1 2 3 4 5 6 7 8 9 10 11 12 13</Indices>
                    <REAL-Entries>56.0 2175412.0 6250839.0 6489084.0 94.0 1022.3855 -3.2944214 6.301539 6.9264255 -0.0036651916 -0.0012217305 0.0012217305 0.0</REAL-Entries>
                </REAL-SparseArray>
            </VectorInstance>
            <VectorInstance id="680">
                <REAL-SparseArray n="14" defaultValue="0">
                    <Indices>1 2 3 4 5 6 7 8 9 10 11 12 13</Indices>
                    <REAL-Entries>57.0 2213837.0 6262644.0 6511400.0 93.0 1022.4419 -3.2561142 6.3063273 6.9264255 -0.0036651916 0.002443461 0.0 0.0</REAL-Entries>
                </REAL-SparseArray>
            </VectorInstance>
            <VectorInstance id="685">
                <REAL-SparseArray n="14" defaultValue="0">
                    <Indices>1 2 3 4 5 6 7 8 9 10 11 12 13</Indices>
                    <REAL-Entries>85.0 2178589.0 6227947.0 6729548.0 97.0 1021.6145 -4.951209 7.5968018 -4.510676 0.0842994 0.081855945 -0.3005457 0.0</REAL-Entries>
                </REAL-SparseArray>
            </VectorInstance>
            <VectorInstance id="686">
                <REAL-SparseArray n="14" defaultValue="0">
                    <Indices>1 2 3 4 5 6 7 8 9 10 11 12 13</Indices>
                    <REAL-Entries>60.0 2250796.0 6265238.0 6519308.0 92.0 1022.4651 -3.229778 6.265626 6.9599442 0.0036651916 0.0 0.0012217305 0.0</REAL-Entries>
                </REAL-SparseArray>
            </VectorInstance>
            <VectorInstance id="689">
                <REAL-SparseArray n="14" defaultValue="0">
                    <Indices>1 2 3 4 5 6 7 8 9 10 11 12 13</Indices>
                    <REAL-Entries>57.0 2343926.0 6301941.0 6577868.0 91.0 1022.4143 -3.1483753 6.2823853 7.053318 -0.0061086523 0.0 -0.002443461 0.0</REAL-Entries>
                </REAL-SparseArray>
            </VectorInstance>
            <VectorInstance id="691">
                <REAL-SparseArray n="14" defaultValue="0">
                    <Indices>1 2 3 4 5 6 7 8 9 10 11 12 13</Indices>
                    <REAL-Entries>75.0 1763342.0 5944990.0 6318306.0 87.0 1021.57666 8.322245 1.6903064 -4.924873 -0.0036651916 0.0012217305 0.0 0.0</REAL-Entries>
                </REAL-SparseArray>
            </VectorInstance>
            <VectorInstance id="695">
                <REAL-SparseArray n="14" defaultValue="0">
                    <Indices>1 2 3 4 5 6 7 8 9 10 11 12 13</Indices>
                    <REAL-Entries>64.0 1596541.0 6162073.0 6087862.0 96.0 1022.9651 -2.7868507 9.100361 2.813187 0.002443461 0.0012217305 0.0 0.0</REAL-Entries>
                </REAL-SparseArray>
            </VectorInstance>
            <VectorInstance id="696">
                <REAL-SparseArray n="14" defaultValue="0">
                    <Indices>1 2 3 4 5 6 7 8 9 10 11 12 13</Indices>
                    <REAL-Entries>72.0 1861835.0 6074411.0 6363464.0 87.0 1021.68286 -7.467515 -3.6727054 4.879383 0.19792034 -0.012217305 0.30298916 0.0</REAL-Entries>
                </REAL-SparseArray>
            </VectorInstance>
            <VectorInstance id="701">
                <REAL-SparseArray n="14" defaultValue="0">
                    <Indices>1 2 3 4 5 6 7 8 9 10 11 12 13</Indices>
                    <REAL-Entries>59.0 2182859.0 6249833.0 6477184.0 93.0 1022.41943 -3.311181 6.361394 6.9743094 -0.0036651916 -0.0012217305 -0.002443461 0.0</REAL-Entries>
                </REAL-SparseArray>
            </VectorInstance>
            <VectorInstance id="702">
                <REAL-SparseArray n="14" defaultValue="0">
                    <Indices>1 2 3 4 5 6 7 8 9 10 11 12 13</Indices>
                    <REAL-Entries>62.0 1625077.0 6221896.0 6161057.0 96.0 1022.8699 -2.7509377 9.121908 2.8754363 -0.002443461 -0.0061086523 0.0061086523 0.0</REAL-Entries>
                </REAL-SparseArray>
            </VectorInstance>
            <VectorInstance id="705">
                <REAL-SparseArray n="14" defaultValue="0">
                    <Indices>1 2 3 4 5 6 7 8 9 10 11 12 13</Indices>
                    <REAL-Entries>63.0 1491170.0 6225064.0 6132675.0 96.0 1022.8074 -2.825158 9.028535 2.9017725 0.0 0.0012217305 0.004886922 0.0</REAL-Entries>
                </REAL-SparseArray>
            </VectorInstance>
            <VectorInstance id="708">
                <REAL-SparseArray n="14" defaultValue="0">
                    <Indices>1 2 3 4 5 6 7 8 9 10 11 12 13</Indices>
                    <REAL-Entries>97.0 2141679.0 6188526.0 6617829.0 97.0 1021.46436 -5.729325 0.12449849 6.9599442 0.11728613 -0.27977628 0.48991394 0.0</REAL-Entries>
                </REAL-SparseArray>
            </VectorInstance>
            <VectorInstance id="720">
                <REAL-SparseArray n="14" defaultValue="0">
                    <Indices>1 2 3 4 5 6 7 8 9 10 11 12 13</Indices>
                    <REAL-Entries>65.0 1589374.0 6162291.0 6092191.0 96.0 1023.0471 -2.7964275 9.066842 2.8203697 0.0012217305 0.004886922 -0.0036651916 0.0</REAL-Entries>
                </REAL-SparseArray>
            </VectorInstance>
            <VectorInstance id="731">
                <REAL-SparseArray n="14" defaultValue="0">
                    <Indices>1 2 3 4 5 6 7 8 9 10 11 12 13</Indices>
                    <REAL-Entries>63.0 1506428.0 6215737.0 6099676.0 96.0 1022.7656 -2.815581 9.050082 2.8562827 -0.002443461 -0.004886922 -0.007330383 0.0</REAL-Entries>
                </REAL-SparseArray>
            </VectorInstance>
            <VectorInstance id="742">
                <REAL-SparseArray n="14" defaultValue="0">
                    <Indices>1 2 3 4 5 6 7 8 9 10 11 12 13</Indices>
                    <REAL-Entries>70.0 1354729.0 5989055.0 5961798.0 97.0 1022.7036 -5.0134583 8.042124 -2.4779987 -0.0012217305 0.0012217305 0.0061086523 0.0</REAL-Entries>
                </REAL-SparseArray>
            </VectorInstance>
            <VectorInstance id="746">
                <REAL-SparseArray n="14" defaultValue="0">
                    <Indices>1 2 3 4 5 6 7 8 9 10 11 12 13</Indices>
                    <REAL-Entries>67.0 1612935.0 6484203.0 6293207.0 97.0 1022.7009 3.2704794 7.699753 5.305551 0.0036651916 -0.0012217305 0.0012217305 0.0</REAL-Entries>
                </REAL-SparseArray>
            </VectorInstance>
            <VectorInstance id="750">
                <REAL-SparseArray n="14" defaultValue="0">
                    <Indices>1 2 3 4 5 6 7 8 9 10 11 12 13</Indices>
                    <REAL-Entries>56.0 2241754.0 6267903.0 6523254.0 93.0 1022.4597 -3.205836 6.256049 7.0006456 -0.0012217305 -0.0012217305 -0.0012217305 0.0</REAL-Entries>
                </REAL-SparseArray>
            </VectorInstance>
            <VectorInstance id="751">
                <REAL-SparseArray n="14" defaultValue="0">
                    <Indices>1 2 3 4 5 6 7 8 9 10 11 12 13</Indices>
                    <REAL-Entries>72.0 2167497.0 6259319.0 6489703.0 96.0 1021.6904 6.2249246 3.3375173 7.4268136 0.4886922 0.7623598 0.29077184 4.0</REAL-Entries>
                </REAL-SparseArray>
            </VectorInstance>
            <VectorInstance id="752">
                <REAL-SparseArray n="14" defaultValue="0">
                    <Indices>1 2 3 4 5 6 7 8 9 10 11 12 13</Indices>
                    <REAL-Entries>55.0 2305968.0 6293489.0 6563990.0 91.0 1022.40625 -3.13401 6.31351 6.9767036 0.002443461 0.0 0.0036651916 0.0</REAL-Entries>
                </REAL-SparseArray>
            </VectorInstance>
            <VectorInstance id="757">
                <REAL-SparseArray n="14" defaultValue="0">
                    <Indices>1 2 3 4 5 6 7 8 9 10 11 12 13</Indices>
                    <REAL-Entries>76.0 2146217.0 6354713.0 6474338.0 87.0 1021.7908 -0.85473 5.755661 8.889671 0.12095132 0.019547688 -0.68783426 0.0</REAL-Entries>
                </REAL-SparseArray>
            </VectorInstance>
            <VectorInstance id="758">
                <REAL-SparseArray n="14" defaultValue="0">
                    <Indices>1 2 3 4 5 6 7 8 9 10 11 12 13</Indices>
                    <REAL-Entries>76.0 2022688.0 6189401.0 6459338.0 87.0 1021.8303 5.6000376 7.699753 -2.0590134 -0.05131268 0.0 0.0061086523 0.0</REAL-Entries>
                </REAL-SparseArray>
            </VectorInstance>
            <VectorInstance id="762">
                <REAL-SparseArray n="14" defaultValue="0">
                    <Indices>1 2 3 4 5 6 7 8 9 10 11 12 13</Indices>
                    <REAL-Entries>59.0 1498631.0 6096431.0 6019105.0 96.0 1023.0796 -2.0685902 9.349358 2.27928 -0.009773844 -0.0012217305 -0.0036651916 0.0</REAL-Entries>
                </REAL-SparseArray>
            </VectorInstance>
            <VectorInstance id="764">
                <REAL-SparseArray n="14" defaultValue="0">
                    <Indices>1 2 3 4 5 6 7 8 9 10 11 12 13</Indices>
                    <REAL-Entries>64.0 1472504.0 6206056.0 6086738.0 96.0 1022.7844 -2.8203697 9.0716305 2.870648 -0.002443461 0.0 -0.0036651916 0.0</REAL-Entries>
                </REAL-SparseArray>
            </VectorInstance>
            <VectorInstance id="768">
                <REAL-SparseArray n="14" defaultValue="0">
                    <Indices>1 2 3 4 5 6 7 8 9 10 11 12 13</Indices>
                    <REAL-Entries>77.0 2435990.0 6448993.0 6687003.0 97.0 1021.58325 -1.7142484 -3.347094 -8.698134 1.2009611 1.536937 -3.1972687 12.0</REAL-Entries>
                </REAL-SparseArray>
            </VectorInstance>
            <VectorInstance id="774">
                <REAL-SparseArray n="14" defaultValue="0">
                    <Indices>1 2 3 4 5 6 7 8 9 10 11 12 13</Indices>
                    <REAL-Entries>64.0 1646440.0 6170451.0 6104527.0 97.0 1023.02905 -2.7748797 9.045294 2.8538885 -0.002443461 -0.002443461 0.0 0.0</REAL-Entries>
                </REAL-SparseArray>
            </VectorInstance>
            <VectorInstance id="779">
                <REAL-SparseArray n="14" defaultValue="0">
                    <Indices>1 2 3 4 5 6 7 8 9 10 11 12 13</Indices>
                    <REAL-Entries>58.0 2211856.0 6252014.0 6497009.0 93.0 1022.37964 -3.2249897 6.2847795 6.931214 -0.002443461 0.0012217305 0.0 0.0</REAL-Entries>
                </REAL-SparseArray>
            </VectorInstance>
            <VectorInstance id="781">
                <REAL-SparseArray n="14" defaultValue="0">
                    <Indices>1 2 3 4 5 6 7 8 9 10 11 12 13</Indices>
                    <REAL-Entries>63.0 1582728.0 6180757.0 6104359.0 96.0 1022.97314 -2.8107927 9.069236 2.8778305 -0.002443461 -0.004886922 0.0036651916 0.0</REAL-Entries>
                </REAL-SparseArray>
            </VectorInstance>
            <VectorInstance id="784">
                <REAL-SparseArray n="14" defaultValue="0">
                    <Indices>1 2 3 4 5 6 7 8 9 10 11 12 13</Indices>
                    <REAL-Entries>57.0 1311378.0 6217813.0 6054607.0 97.0 1023.1116 -1.970428 9.411607 2.2361844 -0.0036651916 0.0012217305 -0.004886922 0.0</REAL-Entries>
                </REAL-SparseArray>
            </VectorInstance>
            <VectorInstance id="788">
                <REAL-SparseArray n="14" defaultValue="0">
                    <Indices>1 2 3 4 5 6 7 8 9 10 11 12 13</Indices>
                    <REAL-Entries>69.0 1290842.0 5970087.0 5940567.0 99.0 1022.68066 -5.0517654 8.09719 -2.5115175 0.004886922 0.002443461 -0.0061086523 0.0</REAL-Entries>
                </REAL-SparseArray>
            </VectorInstance>
            <VectorInstance id="789">
                <REAL-SparseArray n="14" defaultValue="0">
                    <Indices>1 2 3 4 5 6 7 8 9 10 11 12 13</Indices>
                    <REAL-Entries>66.0 1664997.0 6171697.0 6112686.0 97.0 1023.0176 -2.7868507 9.090784 2.825158 0.0012217305 0.0 -0.004886922 0.0</REAL-Entries>
                </REAL-SparseArray>
            </VectorInstance>
            <VectorInstance id="790">
                <REAL-SparseArray n="14" defaultValue="0">
                    <Indices>1 2 3 4 5 6 7 8 9 10 11 12 13</Indices>
                    <REAL-Entries>60.0 1622424.0 5887165.0 6279686.0 87.0 1021.62573 3.4644098 0.16280572 -9.02614 -0.0036651916 -0.004886922 -0.008552114 0.0</REAL-Entries>
                </REAL-SparseArray>
            </VectorInstance>
            <VectorInstance id="800">
                <REAL-SparseArray n="14" defaultValue="0">
                    <Indices>1 2 3 4 5 6 7 8 9 10 11 12 13</Indices>
                    <REAL-Entries>63.0 1536787.0 6196537.0 6097776.0 96.0 1022.801 -2.767697 9.100361 2.8562827 0.0036651916 0.004886922 -0.002443461 0.0</REAL-Entries>
                </REAL-SparseArray>
            </VectorInstance>
            <VectorInstance id="810">
                <REAL-SparseArray n="14" defaultValue="0">
                    <Indices>1 2 3 4 5 6 7 8 9 10 11 12 13</Indices>
                    <REAL-Entries>61.0 1460631.0 6214197.0 6096146.0 96.0 1022.78467 -2.6479871 9.040505 2.8419175 -0.0036651916 -0.004886922 -0.0061086523 0.0</REAL-Entries>
                </REAL-SparseArray>
            </VectorInstance>
            <VectorInstance id="811">
                <REAL-SparseArray n="14" defaultValue="0">
                    <Indices>1 2 3 4 5 6 7 8 9 10 11 12 13</Indices>
                    <REAL-Entries>58.0 2181635.0 6255538.0 6486265.0 93.0 1022.4463 -3.2752678 6.31351 6.9144545 -0.002443461 -0.0012217305 0.004886922 0.0</REAL-Entries>
                </REAL-SparseArray>
            </VectorInstance>
            <VectorInstance id="813">
                <REAL-SparseArray n="14" defaultValue="0">
                    <Indices>1 2 3 4 5 6 7 8 9 10 11 12 13</Indices>
                    <REAL-Entries>69.0 2297213.0 6253929.0 6550808.0 87.0 1021.68555 -7.2568254 -5.2289367 4.1491513 0.02443461 0.014660766 0.037873644 0.0</REAL-Entries>
                </REAL-SparseArray>
            </VectorInstance>
            <VectorInstance id="816">
                <REAL-SparseArray n="14" defaultValue="0">
                    <Indices>1 2 3 4 5 6 7 8 9 10 11 12 13</Indices>
                    <REAL-Entries>64.0 1582399.0 6212143.0 6135562.0 96.0 1022.8672 -2.815581 9.121908 2.801216 0.002443461 0.002443461 -0.004886922 0.0</REAL-Entries>
                </REAL-SparseArray>
            </VectorInstance>
            <VectorInstance id="817">
                <REAL-SparseArray n="14" defaultValue="0">
                    <Indices>1 2 3 4 5 6 7 8 9 10 11 12 13</Indices>
                    <REAL-Entries>88.0 2266309.0 6306175.0 6613777.0 97.0 1021.6787 -4.63278 1.8602947 -7.759608 0.029321533 0.1685988 0.16615535 8.0</REAL-Entries>
                </REAL-SparseArray>
            </VectorInstance>
            <VectorInstance id="823">
                <REAL-SparseArray n="14" defaultValue="0">
                    <Indices>1 2 3 4 5 6 7 8 9 10 11 12 13</Indices>
                    <REAL-Entries>54.0 2257290.0 6269311.0 6528968.0 93.0 1022.4712 -3.2321723 6.26802 6.873753 -0.002443461 0.002443461 0.0 0.0</REAL-Entries>
                </REAL-SparseArray>
            </VectorInstance>
            <VectorInstance id="824">
                <REAL-SparseArray n="14" defaultValue="0">
                    <Indices>1 2 3 4 5 6 7 8 9 10 11 12 13</Indices>
                    <REAL-Entries>65.0 1538075.0 6192857.0 6111392.0 96.0 1022.79834 -2.8802247 9.107543 2.8107927 -0.0012217305 -0.0012217305 -0.0036651916 0.0</REAL-Entries>
                </REAL-SparseArray>
            </VectorInstance>
            <VectorInstance id="827">
                <REAL-SparseArray n="14" defaultValue="0">
                    <Indices>1 2 3 4 5 6 7 8 9 10 11 12 13</Indices>
                    <REAL-Entries>62.0 1525908.0 6213840.0 6113393.0 96.0 1022.7732 -2.801216 9.062054 2.825158 0.002443461 0.0036651916 0.0036651916 0.0</REAL-Entries>
                </REAL-SparseArray>
            </VectorInstance>
            <VectorInstance id="828">
                <REAL-SparseArray n="14" defaultValue="0">
                    <Indices>1 2 3 4 5 6 7 8 9 10 11 12 13</Indices>
                    <REAL-Entries>57.0 2367673.0 6333132.0 6612638.0 92.0 1022.4343 -3.1747115 6.1866174 7.091625 -0.002443461 -0.0061086523 0.0012217305 0.0</REAL-Entries>
                </REAL-SparseArray>
            </VectorInstance>
            <VectorInstance id="829">
                <REAL-SparseArray n="14" defaultValue="0">
                    <Indices>1 2 3 4 5 6 7 8 9 10 11 12 13</Indices>
                    <REAL-Entries>66.0 1940793.0 6138943.0 6331613.0 95.0 1022.6987 -0.2801216 9.064447 3.9959226 -0.002443461 -0.0012217305 0.002443461 0.0</REAL-Entries>
                </REAL-SparseArray>
            </VectorInstance>
            <VectorInstance id="833">
                <REAL-SparseArray n="14" defaultValue="0">
                    <Indices>1 2 3 4 5 6 7 8 9 10 11 12 13</Indices>
                    <REAL-Entries>74.0 2069016.0 6404877.0 6476494.0 87.0 1021.823 0.08379706 7.405266 6.069301 -0.096516706 -0.36041048 0.4886922 0.0</REAL-Entries>
                </REAL-SparseArray>
            </VectorInstance>
            <VectorInstance id="836">
                <REAL-SparseArray n="14" defaultValue="0">
                    <Indices>1 2 3 4 5 6 7 8 9 10 11 12 13</Indices>
                    <REAL-Entries>67.0 1619432.0 6189160.0 6144326.0 96.0 1023.02124 -2.80361 9.109938 2.8538885 0.0036651916 0.008552114 -0.013439035 0.0</REAL-Entries>
                </REAL-SparseArray>
            </VectorInstance>
            <VectorInstance id="837">
                <REAL-SparseArray n="14" defaultValue="0">
                    <Indices>1 2 3 4 5 6 7 8 9 10 11 12 13</Indices>
                    <REAL-Entries>77.0 1966695.0 6349077.0 6563600.0 87.0 1021.85205 0.9720459 9.385271 1.1492168 0.6780604 0.10262536 0.6976081 0.0</REAL-Entries>
                </REAL-SparseArray>
            </VectorInstance>
            <VectorInstance id="838">
                <REAL-SparseArray n="14" defaultValue="0">
                    <Indices>1 2 3 4 5 6 7 8 9 10 11 12 13</Indices>
                    <REAL-Entries>67.0 1808801.0 5937419.0 6314140.0 87.0 1021.6106 8.597578 1.6328455 -4.7022123 -0.008552114 -0.02321288 0.06352998 0.0</REAL-Entries>
                </REAL-SparseArray>
            </VectorInstance>
            <VectorInstance id="840">
                <REAL-SparseArray n="14" defaultValue="0">
                    <Indices>1 2 3 4 5 6 7 8 9 10 11 12 13</Indices>
                    <REAL-Entries>68.0 1516882.0 6197533.0 6112427.0 96.0 1022.7798 -2.7461493 9.050082 2.789245 -0.002443461 -0.002443461 -0.0036651916 0.0</REAL-Entries>
                </REAL-SparseArray>
            </VectorInstance>
            <VectorInstance id="851">
                <REAL-SparseArray n="14" defaultValue="0">
                    <Indices>1 2 3 4 5 6 7 8 9 10 11 12 13</Indices>
                    <REAL-Entries>55.0 2297293.0 6292581.0 6564996.0 91.0 1022.4253 -3.13401 6.3063273 6.9838862 0.008552114 -0.0012217305 0.0 0.0</REAL-Entries>
                </REAL-SparseArray>
            </VectorInstance>
            <VectorInstance id="853">
                <REAL-SparseArray n="14" defaultValue="0">
                    <Indices>1 2 3 4 5 6 7 8 9 10 11 12 13</Indices>
                    <REAL-Entries>95.0 1628284.0 6259949.0 6722511.0 97.0 1021.46216 -7.8793178 -6.447585 3.0095115 -0.23945917 0.02321288 1.6468927 0.0</REAL-Entries>
                </REAL-SparseArray>
            </VectorInstance>
            <VectorInstance id="854">
                <REAL-SparseArray n="14" defaultValue="0">
                    <Indices>1 2 3 4 5 6 7 8 9 10 11 12 13</Indices>
                    <REAL-Entries>73.0 1633257.0 6515501.0 6354190.0 97.0 1022.73584 3.1842883 7.632715 5.4539914 0.0036651916 0.0036651916 -0.0012217305 0.0</REAL-Entries>
                </REAL-SparseArray>
            </VectorInstance>
            <VectorInstance id="856">
                <REAL-SparseArray n="14" defaultValue="0">
                    <Indices>1 2 3 4 5 6 7 8 9 10 11 12 13</Indices>
                    <REAL-Entries>57.0 2370083.0 6323610.0 6605487.0 91.0 1022.4458 -3.145981 6.220136 7.041347 0.002443461 0.004886922 0.002443461 0.0</REAL-Entries>
                </REAL-SparseArray>
            </VectorInstance>
            <VectorInstance id="857">
                <REAL-SparseArray n="14" defaultValue="0">
                    <Indices>1 2 3 4 5 6 7 8 9 10 11 12 13</Indices>
                    <REAL-Entries>68.0 1335938.0 5929893.0 5937913.0 99.0 1022.7522 -5.0374002 8.09719 -2.3750482 0.004886922 0.0 -0.004886922 0.0</REAL-Entries>
                </REAL-SparseArray>
            </VectorInstance>
            <VectorInstance id="870">
                <REAL-SparseArray n="14" defaultValue="0">
                    <Indices>1 2 3 4 5 6 7 8 9 10 11 12 13</Indices>
                    <REAL-Entries>54.0 2366502.0 6331395.0 6611495.0 91.0 1022.468 -3.0933087 6.2967505 7.055712 0.002443461 0.002443461 -0.0012217305 0.0</REAL-Entries>
                </REAL-SparseArray>
            </VectorInstance>
            <VectorInstance id="875">
                <REAL-SparseArray n="14" defaultValue="0">
                    <Indices>1 2 3 4 5 6 7 8 9 10 11 12 13</Indices>
                    <REAL-Entries>87.0 1641347.0 6062099.0 6463692.0 97.0 1021.6282 -6.411672 -2.6264393 -6.9024835 -0.058643065 -0.047647487 0.13439035 4.0</REAL-Entries>
                </REAL-SparseArray>
            </VectorInstance>
            <VectorInstance id="883">
                <REAL-SparseArray n="14" defaultValue="0">
                    <Indices>1 2 3 4 5 6 7 8 9 10 11 12 13</Indices>
                    <REAL-Entries>65.0 1604222.0 5869976.0 6262093.0 87.0 1021.63184 3.442862 -0.059855044 -9.097966 0.0012217305 -0.009773844 -0.002443461 0.0</REAL-Entries>
                </REAL-SparseArray>
            </VectorInstance>
            <VectorInstance id="898">
                <REAL-SparseArray n="14" defaultValue="0">
                    <Indices>1 2 3 4 5 6 7 8 9 10 11 12 13</Indices>
                    <REAL-Entries>68.0 1513516.0 6202013.0 6116073.0 96.0 1022.80884 -2.7820623 9.059659 2.813187 -0.002443461 -0.002443461 -0.004886922 0.0</REAL-Entries>
                </REAL-SparseArray>
            </VectorInstance>
            <VectorInstance id="900">
                <REAL-SparseArray n="14" defaultValue="0">
                    <Indices>1 2 3 4 5 6 7 8 9 10 11 12 13</Indices>
                    <REAL-Entries>88.0 1955451.0 6399880.0 6601387.0 97.0 1021.68335 -8.698134 -0.16519992 -0.37110126 0.52534413 -2.5448647 0.4007276 0.0</REAL-Entries>
                </REAL-SparseArray>
            </VectorInstance>
            <VectorInstance id="902">
                <REAL-SparseArray n="14" defaultValue="0">
                    <Indices>1 2 3 4 5 6 7 8 9 10 11 12 13</Indices>
                    <REAL-Entries>66.0 1475921.0 6205194.0 6121655.0 96.0 1022.77124 -2.8778305 9.011775 2.8203697 0.0 0.002443461 -0.013439035 0.0</REAL-Entries>
                </REAL-SparseArray>
            </VectorInstance>
            <VectorInstance id="904">
                <REAL-SparseArray n="14" defaultValue="0">
                    <Indices>1 2 3 4 5 6 7 8 9 10 11 12 13</Indices>
                    <REAL-Entries>60.0 1579953.0 6177775.0 6106126.0 96.0 1022.9783 -2.801216 9.038112 2.8275523 -0.002443461 -0.002443461 0.0 0.0</REAL-Entries>
                </REAL-SparseArray>
            </VectorInstance>
            <VectorInstance id="905">
                <REAL-SparseArray n="14" defaultValue="0">
                    <Indices>1 2 3 4 5 6 7 8 9 10 11 12 13</Indices>
                    <REAL-Entries>58.0 2351386.0 6364782.0 6625422.0 93.0 1022.51416 -3.1555579 6.2584434 7.103596 0.004886922 0.0012217305 0.0 0.0</REAL-Entries>
                </REAL-SparseArray>
            </VectorInstance>
            <VectorInstance id="914">
                <REAL-SparseArray n="14" defaultValue="0">
                    <Indices>1 2 3 4 5 6 7 8 9 10 11 12 13</Indices>
                    <REAL-Entries>64.0 1553925.0 6198320.0 6132432.0 96.0 1022.91626 -2.825158 9.0476885 2.8754363 -0.002443461 0.0 -0.013439035 0.0</REAL-Entries>
                </REAL-SparseArray>
            </VectorInstance>
            <VectorInstance id="918">
                <REAL-SparseArray n="14" defaultValue="0">
                    <Indices>1 2 3 4 5 6 7 8 9 10 11 12 13</Indices>
                    <REAL-Entries>63.0 1419433.0 6185961.0 6054295.0 96.0 1023.14404 -2.0757728 9.416395 2.2888567 -0.0061086523 0.0 -0.0036651916 0.0</REAL-Entries>
                </REAL-SparseArray>
            </VectorInstance>
            <VectorInstance id="919">
                <REAL-SparseArray n="14" defaultValue="0">
                    <Indices>1 2 3 4 5 6 7 8 9 10 11 12 13</Indices>
                    <REAL-Entries>73.0 2049380.0 6331184.0 6490071.0 87.0 1021.7693 -4.0557775 4.987122 6.2225304 -0.1160644 -0.5119051 0.42638394 0.0</REAL-Entries>
                </REAL-SparseArray>
            </VectorInstance>
            <VectorInstance id="928">
                <REAL-SparseArray n="14" defaultValue="0">
                    <Indices>1 2 3 4 5 6 7 8 9 10 11 12 13</Indices>
                    <REAL-Entries>64.0 1670364.0 6173926.0 6117874.0 97.0 1023.04785 -2.6862943 9.01417 2.8802247 -0.004886922 -0.004886922 0.007330383 0.0</REAL-Entries>
                </REAL-SparseArray>
            </VectorInstance>
            <VectorInstance id="931">
                <REAL-SparseArray n="14" defaultValue="0">
                    <Indices>1 2 3 4 5 6 7 8 9 10 11 12 13</Indices>
                    <REAL-Entries>58.0 1394029.0 6173711.0 6045313.0 96.0 1023.10596 -2.1667526 9.31105 2.3295584 -0.004886922 -0.0012217305 -0.004886922 0.0</REAL-Entries>
                </REAL-SparseArray>
            </VectorInstance>
            <VectorInstance id="935">
                <REAL-SparseArray n="14" defaultValue="0">
                    <Indices>1 2 3 4 5 6 7 8 9 10 11 12 13</Indices>
                    <REAL-Entries>68.0 1754159.0 6282464.0 6663576.0 97.0 1021.63477 -2.3582888 8.566454 -4.0078936 -0.013439035 -0.017104227 -0.043982297 0.0</REAL-Entries>
                </REAL-SparseArray>
            </VectorInstance>
            <VectorInstance id="937">
                <REAL-SparseArray n="14" defaultValue="0">
                    <Indices>1 2 3 4 5 6 7 8 9 10 11 12 13</Indices>
                    <REAL-Entries>78.0 1992643.0 6162469.0 6352673.0 87.0 1021.7886 -2.1212628 8.552089 4.4963107 0.061086524 0.009773844 -0.004886922 0.0</REAL-Entries>
                </REAL-SparseArray>
            </VectorInstance>
            <VectorInstance id="939">
                <REAL-SparseArray n="14" defaultValue="0">
                    <Indices>1 2 3 4 5 6 7 8 9 10 11 12 13</Indices>
                    <REAL-Entries>56.0 2238210.0 6268492.0 6522935.0 93.0 1022.47876 -3.2728736 6.31351 6.9647326 0.0 0.0 -0.0036651916 0.0</REAL-Entries>
                </REAL-SparseArray>
            </VectorInstance>
            <VectorInstance id="940">
                <REAL-SparseArray n="14" defaultValue="0">
                    <Indices>1 2 3 4 5 6 7 8 9 10 11 12 13</Indices>
                    <REAL-Entries>70.0 1790513.0 6146765.0 6417691.0 87.0 1021.68823 2.8514943 8.939949 -6.945579 0.2919936 0.14172074 0.43860126 0.0</REAL-Entries>
                </REAL-SparseArray>
            </VectorInstance>
            <VectorInstance id="942">
                <REAL-SparseArray n="14" defaultValue="0">
                    <Indices>1 2 3 4 5 6 7 8 9 10 11 12 13</Indices>
                    <REAL-Entries>99.0 2143167.0 6210828.0 6612298.0 97.0 1021.5381 -6.244078 4.699818 -3.5314474 -0.7684685 -0.93462384 0.4569272 4.0</REAL-Entries>
                </REAL-SparseArray>
            </VectorInstance>
            <VectorInstance id="944">
                <REAL-SparseArray n="14" defaultValue="0">
                    <Indices>1 2 3 4 5 6 7 8 9 10 11 12 13</Indices>
                    <REAL-Entries>61.0 1580395.0 6177769.0 6107595.0 96.0 1022.9873 -2.753332 9.059659 2.885013 0.0036651916 0.0012217305 0.002443461 0.0</REAL-Entries>
                </REAL-SparseArray>
            </VectorInstance>
            <VectorInstance id="955">
                <REAL-SparseArray n="14" defaultValue="0">
                    <Indices>1 2 3 4 5 6 7 8 9 10 11 12 13</Indices>
                    <REAL-Entries>66.0 1533527.0 6194172.0 6116055.0 96.0 1022.9136 -2.779668 9.076419 2.9041667 -0.0036651916 -0.0036651916 -0.002443461 0.0</REAL-Entries>
                </REAL-SparseArray>
            </VectorInstance>
            <VectorInstance id="966">
                <REAL-SparseArray n="14" defaultValue="0">
                    <Indices>1 2 3 4 5 6 7 8 9 10 11 12 13</Indices>
                    <REAL-Entries>62.0 1822717.0 5872247.0 6286660.0 87.0 1021.6211 7.4962454 5.657499 -3.2465374 -0.0036651916 0.009773844 0.007330383 0.0</REAL-Entries>
                </REAL-SparseArray>
            </VectorInstance>
            <VectorInstance id="967">
                <REAL-SparseArray n="14" defaultValue="0">
                    <Indices>1 2 3 4 5 6 7 8 9 10 11 12 13</Indices>
                    <REAL-Entries>63.0 1634120.0 6186069.0 6132875.0 96.0 1023.0293 -2.755726 9.088389 2.8514943 -0.002443461 -0.0036651916 0.0061086523 0.0</REAL-Entries>
                </REAL-SparseArray>
            </VectorInstance>
            <VectorInstance id="976">
                <REAL-SparseArray n="14" defaultValue="0">
                    <Indices>1 2 3 4 5 6 7 8 9 10 11 12 13</Indices>
                    <REAL-Entries>59.0 1680968.0 6186768.0 6130493.0 97.0 1023.0156 -2.7629087 9.102755 2.8562827 -0.0012217305 -0.004886922 -0.002443461 0.0</REAL-Entries>
                </REAL-SparseArray>
            </VectorInstance>
            <VectorInstance id="977">
                <REAL-SparseArray n="14" defaultValue="0">
                    <Indices>1 2 3 4 5 6 7 8 9 10 11 12 13</Indices>
                    <REAL-Entries>61.0 1572952.0 5884578.0 6257203.0 87.0 1021.58057 3.976769 0.533907 -8.896853 -0.009773844 0.017104227 -0.015882496 0.0</REAL-Entries>
                </REAL-SparseArray>
            </VectorInstance>
            <VectorInstance id="978">
                <REAL-SparseArray n="14" defaultValue="0">
                    <Indices>1 2 3 4 5 6 7 8 9 10 11 12 13</Indices>
                    <REAL-Entries>60.0 1444339.0 6084055.0 6000885.0 96.0 1023.0908 -2.0829554 9.351752 2.2625206 0.007330383 0.0036651916 0.007330383 0.0</REAL-Entries>
                </REAL-SparseArray>
            </VectorInstance>
            <VectorInstance id="985">
                <REAL-SparseArray n="14" defaultValue="0">
                    <Indices>1 2 3 4 5 6 7 8 9 10 11 12 13</Indices>
                    <REAL-Entries>118.0 2070358.0 6861819.0 6813374.0 95.05156779198077 1023.2705 1.1444284 5.5737014 -5.473145 -0.42760566 -0.7538077 -0.28099802 4.0</REAL-Entries>
                </REAL-SparseArray>
            </VectorInstance>
            <VectorInstance id="989">
                <REAL-SparseArray n="14" defaultValue="0">
                    <Indices>1 2 3 4 5 6 7 8 9 10 11 12 13</Indices>
                    <REAL-Entries>59.0 2180403.0 6251685.0 6482655.0 93.0 1022.4065 -3.2920272 6.3111157 6.9024835 -0.0036651916 0.0 0.0 0.0</REAL-Entries>
                </REAL-SparseArray>
            </VectorInstance>
            <VectorInstance id="990">
                <REAL-SparseArray n="14" defaultValue="0">
                    <Indices>1 2 3 4 5 6 7 8 9 10 11 12 13</Indices>
                    <REAL-Entries>65.0 1558503.0 5871488.0 6272193.0 87.0 1021.6062 3.9624038 0.4309563 -8.954314 0.009773844 0.002443461 0.007330383 0.0</REAL-Entries>
                </REAL-SparseArray>
            </VectorInstance>
            <VectorInstance id="995">
                <REAL-SparseArray n="14" defaultValue="0">
                    <Indices>1 2 3 4 5 6 7 8 9 10 11 12 13</Indices>
                    <REAL-Entries>88.0 1559850.0 6203656.0 6194470.0 96.0 1022.73364 -4.9943047 8.0684595 -2.516306 0.0061086523 0.002443461 -0.004886922 0.0</REAL-Entries>
                </REAL-SparseArray>
            </VectorInstance>
            <VectorInstance id="1002">
                <REAL-SparseArray n="14" defaultValue="0">
                    <Indices>1 2 3 4 5 6 7 8 9 10 11 12 13</Indices>
                    <REAL-Entries>64.0 1459461.0 6223351.0 6125926.0 96.0 1022.7742 -2.7365725 9.069236 2.8491 -0.004886922 -0.0036651916 0.007330383 0.0</REAL-Entries>
                </REAL-SparseArray>
            </VectorInstance>
            <VectorInstance id="1005">
                <REAL-SparseArray n="14" defaultValue="0">
                    <Indices>1 2 3 4 5 6 7 8 9 10 11 12 13</Indices>
                    <REAL-Entries>64.0 1351995.0 5949663.0 5945513.0 99.0 1022.76416 -4.9344497 8.137892 -2.4013844 0.0012217305 0.0012217305 -0.0012217305 0.0</REAL-Entries>
                </REAL-SparseArray>
            </VectorInstance>
            <VectorInstance id="1006">
                <REAL-SparseArray n="14" defaultValue="0">
                    <Indices>1 2 3 4 5 6 7 8 9 10 11 12 13</Indices>
                    <REAL-Entries>63.0 1641294.0 6189545.0 6135673.0 97.0 1022.9971 -2.7844565 9.064447 2.8562827 -0.004886922 -0.0036651916 -0.002443461 0.0</REAL-Entries>
                </REAL-SparseArray>
            </VectorInstance>
            <VectorInstance id="1011">
                <REAL-SparseArray n="14" defaultValue="0">
                    <Indices>1 2 3 4 5 6 7 8 9 10 11 12 13</Indices>
                    <REAL-Entries>89.0 1686132.0 6096417.0 6444525.0 97.0 1021.5962 -5.3007627 -1.6807296 -7.967903 0.012217305 0.08307768 -0.13805555 8.0</REAL-Entries>
                </REAL-SparseArray>
            </VectorInstance>
            <VectorInstance id="1026">
                <REAL-SparseArray n="14" defaultValue="0">
                    <Indices>1 2 3 4 5 6 7 8 9 10 11 12 13</Indices>
                    <REAL-Entries>82.0 1551937.0 5953758.0 6438113.0 97.0 1021.6555 -3.3686419 2.7509377 -8.571242 -0.043982297 -0.1685988 0.02565634 12.0</REAL-Entries>
                </REAL-SparseArray>
            </VectorInstance>
            <VectorInstance id="1030">
                <REAL-SparseArray n="14" defaultValue="0">
                    <Indices>1 2 3 4 5 6 7 8 9 10 11 12 13</Indices>
                    <REAL-Entries>58.0 2344380.0 6305728.0 6587877.0 90.0 1022.43994 -3.181894 6.2871737 7.041347 -0.004886922 0.0 0.0 0.0</REAL-Entries>
                </REAL-SparseArray>
            </VectorInstance>
            <VectorInstance id="1042">
                <REAL-SparseArray n="14" defaultValue="0">
                    <Indices>1 2 3 4 5 6 7 8 9 10 11 12 13</Indices>
                    <REAL-Entries>59.0 2337488.0 6295237.0 6574408.0 92.0 1022.4199 -3.2441432 6.2464724 7.0006456 -0.0061086523 -0.002443461 0.0012217305 0.0</REAL-Entries>
                </REAL-SparseArray>
            </VectorInstance>
            <VectorInstance id="1049">
                <REAL-SparseArray n="14" defaultValue="0">
                    <Indices>1 2 3 4 5 6 7 8 9 10 11 12 13</Indices>
                    <REAL-Entries>67.0 1978936.0 6120674.0 6388320.0 87.0 1021.66675 -5.60722 5.710171 5.8442464 0.24678956 -0.55833083 0.26267207 0.0</REAL-Entries>
                </REAL-SparseArray>
            </VectorInstance>
            <VectorInstance id="1050">
                <REAL-SparseArray n="14" defaultValue="0">
                    <Indices>1 2 3 4 5 6 7 8 9 10 11 12 13</Indices>
                    <REAL-Entries>66.0 1606164.0 6194876.0 6139772.0 96.0 1023.0237 -2.7581203 9.109938 2.8395233 -0.002443461 -0.0012217305 0.0 0.0</REAL-Entries>
                </REAL-SparseArray>
            </VectorInstance>
            <VectorInstance id="1052">
                <REAL-SparseArray n="14" defaultValue="0">
                    <Indices>1 2 3 4 5 6 7 8 9 10 11 12 13</Indices>
                    <REAL-Entries>59.0 2197147.0 6250789.0 6482905.0 93.0 1022.34814 -3.265691 6.2728086 7.0102224 -0.004886922 -0.0012217305 0.002443461 0.0</REAL-Entries>
                </REAL-SparseArray>
            </VectorInstance>
            <VectorInstance id="1060">
                <REAL-SparseArray n="14" defaultValue="0">
                    <Indices>1 2 3 4 5 6 7 8 9 10 11 12 13</Indices>
                    <REAL-Entries>63.0 1582211.0 6174695.0 6096903.0 97.0 1023.0442 -2.705448 9.074024 2.8395233 -0.004886922 -0.004886922 0.0012217305 0.0</REAL-Entries>
                </REAL-SparseArray>
            </VectorInstance>
            <VectorInstance id="1064">
                <REAL-SparseArray n="14" defaultValue="0">
                    <Indices>1 2 3 4 5 6 7 8 9 10 11 12 13</Indices>
                    <REAL-Entries>64.0 1529007.0 6222296.0 6147359.0 96.0 1022.8164 -2.6599581 9.028535 2.9017725 0.0012217305 0.002443461 0.012217305 0.0</REAL-Entries>
                </REAL-SparseArray>
            </VectorInstance>
            <VectorInstance id="1065">
                <REAL-SparseArray n="14" defaultValue="0">
                    <Indices>1 2 3 4 5 6 7 8 9 10 11 12 13</Indices>
                    <REAL-Entries>67.0 1670906.0 6477017.0 6300298.0 97.0 1022.68726 3.2680852 7.7572136 5.389348 0.002443461 0.0 0.007330383 0.0</REAL-Entries>
                </REAL-SparseArray>
            </VectorInstance>
            <VectorInstance id="1078">
                <REAL-SparseArray n="14" defaultValue="0">
                    <Indices>1 2 3 4 5 6 7 8 9 10 11 12 13</Indices>
                    <REAL-Entries>61.0 2325877.0 6427187.0 6646651.0 94.0 1022.521 -3.074155 6.2512608 7.0940194 0.012217305 0.004886922 -0.0036651916 0.0</REAL-Entries>
                </REAL-SparseArray>
            </VectorInstance>
            <VectorInstance id="1081">
                <REAL-SparseArray n="14" defaultValue="0">
                    <Indices>1 2 3 4 5 6 7 8 9 10 11 12 13</Indices>
                    <REAL-Entries>58.0 2187515.0 6264754.0 6500709.0 93.0 1022.3533 -3.323152 6.2345014 6.967127 0.002443461 0.0 0.004886922 0.0</REAL-Entries>
                </REAL-SparseArray>
            </VectorInstance>
            <VectorInstance id="1085">
                <REAL-SparseArray n="14" defaultValue="0">
                    <Indices>1 2 3 4 5 6 7 8 9 10 11 12 13</Indices>
                    <REAL-Entries>66.0 1573033.0 6187563.0 6133563.0 96.0 1023.0398 -2.6839 9.045294 2.8395233 0.0012217305 0.0 0.0061086523 0.0</REAL-Entries>
                </REAL-SparseArray>
            </VectorInstance>
            <VectorInstance id="1091">
                <REAL-SparseArray n="14" defaultValue="0">
                    <Indices>1 2 3 4 5 6 7 8 9 10 11 12 13</Indices>
                    <REAL-Entries>57.0 2195615.0 6260988.0 6491091.0 93.0 1022.4546 -3.2848446 6.315904 6.859388 0.004886922 0.0 0.002443461 0.0</REAL-Entries>
                </REAL-SparseArray>
            </VectorInstance>
            <VectorInstance id="1095">
                <REAL-SparseArray n="14" defaultValue="0">
                    <Indices>1 2 3 4 5 6 7 8 9 10 11 12 13</Indices>
                    <REAL-Entries>64.0 1491389.0 6244541.0 6133827.0 96.0 1022.74756 -2.669535 9.062054 2.89459 -0.0012217305 -0.0036651916 0.004886922 0.0</REAL-Entries>
                </REAL-SparseArray>
            </VectorInstance>
            <VectorInstance id="1108">
                <REAL-SparseArray n="14" defaultValue="0">
